. 0.11290564 0.07077194 0.18865179 -0.41980672 -0.2543282 0.18065889 0.06638927 0.1925974 -0.08603184 0.07950661 0.012215967 0.15722851 0.13141954 -0.07637897 0.1473733 0.12168143 -0.12904377 -0.4582799 0.18731378 0.19222024 -0.3137937 0.10619137 0.023080513 0.26476684 -0.16455337 -0.012865177 0.8444642 0.42071706 -0.22358343 -0.0032993231 -0.1657657 0.2231027 0.22037481 -0.20734821 0.5418987 0.5840769 -0.13822865 0.053098287 -0.037157945 0.2435068 -0.27514508 -0.29347548 -0.011977559 0.9955406 0.2285859 -0.18190731 0.38710603 -0.26671794 0.21618626 0.26209292 0.11772976 0.33199748 0.22808136 0.3057334 0.6560853 -0.27848485 -0.43977436 -0.009595427 -0.23386392 -0.1324663 0.54367554 0.3512325 0.5165385 -0.34481254 -0.24009556 -0.115122996 -0.2777788 0.2929617 -0.20894991 -0.14394832 0.5759483 0.18017273 0.21792296 0.14622097 -0.22962058 0.6239213 0.40555918 -0.0630143 -0.19176099 0.35147592 0.2708886 0.8600278 -0.017547563 -0.24701032 0.25187972 -0.13506107 0.08366479 0.2214576 -0.03717973 -0.8043524 0.5387767 0.447211 -0.007886033 -0.23936656 0.39221513 -0.28229153 -0.13945666 -0.18246187 0.018499264 0.1222689
the 0.277542 0.4998938 0.3746925 -1.0571742 -0.36371347 0.36974755 0.3823209 0.24656579 -0.2399973 0.563163 -0.304717 0.17982104 0.3337437 -0.18899252 -0.008073541 0.023759278 0.034072343 -0.9415724 0.6217937 0.51923776 -0.25261968 0.13901749 -0.43744797 0.22213712 0.3073451 0.08773532 1.1239845 0.40100393 0.14954086 0.44596216 -0.42202178 0.060833693 0.28465357 -0.1795914 0.4927124 0.29163617 -0.17424336 -0.32979408 0.26053014 0.070935994 -0.26789546 0.38773268 0.37309492 0.691082 0.04499314 -0.30251303 0.44421166 -0.19209692 -0.06285665 0.184775 -0.5591374 -0.32516113 -0.47591215 0.45803472 0.4304318 0.466864 -0.38997093 -0.29106584 0.311837 0.11674074 0.8186687 0.10619185 0.15297541 -0.5281573 -0.52781445 -0.13913463 0.05609155 0.3944658 -0.43152094 -0.20445523 0.56482434 -0.19048204 0.48731083 -0.023349063 0.041366883 0.619207 0.47407055 0.30241218 0.2374248 0.57037914 0.31130737 0.71327347 -0.15606855 -0.7190591 -0.1235583 -0.21757378 0.14323412 0.69040114 -0.35240313 -1.349251 0.83172375 0.27999708 -0.4255021 0.09826392 0.34447348 -0.34893143 -0.75064844 -0.49049202 0.66785693 -0.17457744
UNK 0.08467825 0.24477972 0.14943486 -0.26720625 0.3940377 0.5074568 0.16845827 0.40796405 0.13284378 0.071111456 0.21527173 0.27631646 0.6137054 -0.37925455 0.020567466 0.13796511 -0.8197572 -0.6384861 0.092619926 0.0853148 -0.57875663 -0.013467118 0.20011589 0.96886307 0.0320436 0.025551068 0.16156933 0.5335631 -0.31316143 0.21103996 0.1160814 0.2792745 0.18454619 -0.1855734 0.4970801 0.73561615 -0.28135517 -0.2810459 -0.23324734 0.6353424 -0.6924468 -0.55703557 0.026043694 1.0163196 0.27560112 -0.060577076 0.21980804 -0.20086512 0.1483322 0.53189945 0.7182818 0.4297988 0.02523466 0.14895126 0.6913926 -0.50377405 -0.035323456 0.039154574 -0.7308782 -0.2067352 0.3877753 -0.11096383 0.89441586 -0.08010585 -0.17457892 0.11850165 0.09809856 0.5599447 0.1740002 -0.052077994 0.7609794 0.30410716 -0.67002577 0.038012747 0.09826575 0.20588604 -0.21080762 -0.4363677 -0.092659526 0.41478634 0.26429588 0.8078193 0.10137263 -0.4485249 0.52441496 0.3024443 0.12480103 -0.06394317 0.37836695 -0.41732726 0.1753568 -0.03650234 -0.1096898 -0.50742954 0.24959527 -0.028379038 -0.13043623 -0.6768902 0.078664355 0.2901483
and 0.32092065 0.21260102 0.087928616 -0.43678728 -0.29127717 0.36229315 0.16119878 0.40892118 0.015382451 0.091369405 0.16647844 0.18804331 -0.16715027 0.063239075 0.12053977 0.11071662 -0.1701219 -0.43229955 0.21725348 0.24956697 -0.057069335 0.062461093 0.042933356 0.32716915 -0.25123483 0.37509233 0.53578246 0.49092224 -0.16805016 -0.0611024 -0.043389153 0.18664443 0.31953207 0.09304852 0.5171817 0.48883086 -0.10495722 -0.11206732 -0.04943775 -0.05368232 -0.18632858 -0.25467142 -0.06700822 1.0009454 0.38573515 0.04296249 0.35032874 -0.050265227 0.37644717 0.15268816 0.08857516 0.21672192 0.1849144 0.38033935 0.61309755 -0.070949905 -0.36302292 -0.09352193 -0.24881443 -0.1651866 0.4139478 0.24533345 0.35031858 -0.41306722 -0.25789705 -0.26974076 -0.26668575 0.2601557 -0.3075912 -0.16512378 0.7608394 0.35702693 0.3536541 -0.010611939 -0.21538843 0.64852834 0.44062787 0.0900401 -0.16398452 0.5001986 0.30339152 0.5944082 0.04453936 -0.23199654 0.3364407 -0.3090229 -0.16543128 0.38696745 0.22263795 -0.73837256 0.5784444 0.16497289 0.0674097 0.0105444845 0.21215022 -0.6701842 -0.04229974 -0.16703667 0.09967316 0.0222407
of 0.29901096 -0.007065105 -0.08967502 -0.32544765 0.96666723 0.69640905 0.3595828 0.48265657 0.3306597 0.38171953 -0.32439283 0.3401553 0.35067976 0.025072677 0.14648324 0.34210926 -0.45623493 -0.37854278 0.018289687 -0.047997832 -0.7378734 -0.56851727 0.26512632 0.5008306 0.1456275 0.44337887 -0.13463733 0.022498116 -0.418877 -0.2271532 -0.1153145 0.3544941 -0.49051487 0.19831009 0.78567153 0.25398728 -0.3100389 -0.46011403 -0.18438683 0.5003102 0.035764743 -0.36159733 -0.16558166 0.9542022 -0.16399224 0.38983208 0.10770004 -0.24101692 0.274444 0.6974673 0.5072723 0.22310218 -0.47966293 -0.13317548 0.30294183 -0.12764488 -0.034235988 -0.18395363 -0.5814722 -0.11103478 0.18348245 -0.33356327 1.1407762 -0.27067998 -0.6772427 -0.28181717 -0.17180064 1.0377015 0.343302 0.22471282 0.7353029 0.41579488 -0.2925172 0.3111617 -0.13382043 0.93999004 0.1350191 -0.4743898 -0.43599066 0.72108525 0.5209779 1.1842482 0.4988261 -0.91049135 1.1996629 0.15860206 -0.40498498 0.027076451 0.017066225 -1.1437898 0.7028672 0.035472926 -0.08262976 -0.22367609 0.39535373 -0.12174202 -0.45191652 -1.2069709 0.51454705 0.20800668
to 0.14478911 0.75116414 0.107084714 -0.29295674 -0.21117787 -0.090733305 0.18638152 0.3294744 -0.27790576 -0.5078619 0.4181404 0.6589777 -0.09159481 -0.22115418 0.13030289 0.21039912 0.23441435 -0.5401409 0.20516683 0.42921144 0.667644 0.74293995 -0.041802816 0.3910512 -0.5154296 -0.16736832 0.97952753 0.86942935 0.006003623 -0.011818991 -0.096929364 -0.38325515 0.12232847 0.1903686 0.62079734 0.8806175 -0.060978882 0.048949283 -0.59697443 -0.18110144 -0.40649167 -0.09126272 -0.19935559 0.812556 0.43696293 -0.22822057 0.27764282 -0.68102247 0.23217297 0.09417397 -0.16597041 0.16353942 0.6382283 0.9149222 1.0133008 -0.4853728 -0.04781402 -0.35822773 -0.21528813 -0.39820042 0.7258307 0.9787059 0.41052878 -0.40105772 -0.06361158 0.16577946 -0.4281293 -0.09177401 -0.6328479 -0.3155436 0.849864 0.76139075 0.73515207 -0.036228444 -0.24674211 0.51069534 0.572067 0.07864816 -0.06747942 0.43785545 -0.03582755 0.5360968 -0.6001388 0.35328758 0.3019294 -0.7188996 0.078368865 0.40762448 0.36524567 -0.23522452 0.4466221 0.29711866 0.33900514 -0.403128 0.13658679 -0.5841257 0.15046193 0.37859654 -0.19272807 -0.04880587
a 0.040443894 0.26602748 0.0037876433 -0.4207856 0.36880615 0.39815894 0.2993845 0.50800174 -0.11082773 0.44245905 0.16765991 0.2346042 0.07017014 -0.32904023 -0.02753454 0.29140556 -0.6036042 -0.6896546 -0.02288142 0.3386695 -0.16969489 -0.11255312 0.056538768 0.65459824 -0.10711213 0.1460407 0.16299315 0.22608237 -0.33659473 0.06237243 0.1613417 -0.048784196 0.045241103 0.054213732 0.48221648 0.079395555 0.029364059 -0.061983116 -0.039376106 0.46067142 -0.23384307 -0.23676254 -0.28355375 0.8379916 0.08047432 0.0155064985 0.22077349 -0.3496568 0.24639215 0.6289533 0.4852181 0.17291607 -0.2747739 0.19744842 0.45369762 -0.24420486 -0.16379671 -0.18477382 -0.63655484 -0.30821395 0.64514565 0.18445122 0.8652467 -0.45650563 -0.69159484 -0.13168803 -0.22699144 0.55490696 0.18564814 -0.44015542 0.85503983 0.58407634 -0.16778475 0.05268534 -0.28065544 0.46436426 0.13003229 -0.43647867 -0.32038173 0.5569316 0.029696707 0.76279074 0.10240585 -0.34235728 0.44003013 -0.028011434 -0.014098821 0.08105736 0.49752456 -0.7539932 0.11967298 0.17772801 -0.06727338 -0.15856002 0.12392717 -0.11931684 -0.05078536 -0.4841608 -0.10164868 0.20074032
that 0.11167333 0.2467578 0.17007637 -0.3433086 -0.09922998 0.3208126 0.2648714 0.36231098 0.048106257 -0.027468568 0.22723608 0.18194222 0.045580983 -0.1863349 0.1834728 0.098873585 -0.5532754 -0.51257765 0.19236806 0.26595265 -0.24120015 0.10584514 0.015394046 0.67725927 -0.26310584 0.053909775 0.44715577 0.49314868 -0.2341955 0.126377 0.09767774 0.03936773 0.19759102 -0.004939509 0.4438453 0.3904053 -0.15437764 -0.09083249 -0.22749557 0.3960848 -0.40236026 -0.43677032 -0.20490694 0.89094496 0.37988654 -0.019278912 0.23111787 -0.19115816 0.2820051 0.31307304 0.42519403 0.2506827 0.18557496 0.46117654 0.66856956 -0.4276247 -0.1318603 -0.091226764 -0.5899848 -0.33101776 0.4357317 0.33419544 0.6179994 -0.36242682 -0.37006825 0.025234863 -0.2655753 0.33194667 -0.029908106 -0.24176043 0.75980985 0.546409 -0.051083602 -0.019585937 -0.15106617 0.35655588 0.23272967 -0.19742039 -0.20606989 0.4294605 0.16100986 0.69521654 0.041678607 -0.11645787 0.46220818 -0.16092914 -0.023920441 0.12959674 0.42662066 -0.5422789 0.3119207 0.214774 0.095934644 -0.3397426 0.16417746 -0.23686421 0.026661228 -0.28073564 -0.07735733 0.16440813
so 0.3185299 0.5529812 0.1574182 -0.73123986 -0.56452924 0.30501908 0.115274064 0.29263213 0.1731041 -0.035843056 0.20886466 0.36296818 0.0075004958 -0.06424945 0.4038848 0.048329797 0.0051250053 -0.5723487 0.32447362 0.1839214 0.019101704 0.43710297 -0.13272788 0.44280395 -0.035327505 -0.016479174 0.85293996 0.5727693 -0.037610166 0.19031675 -0.19642475 0.18571411 0.30433387 -0.060956072 0.4244829 0.49975753 -0.23655337 -0.18483691 -0.20625764 0.09412583 -0.30969855 -0.27186823 0.13450924 0.8508379 0.33803636 -0.08219361 0.2525293 -0.3572134 -0.0010854248 0.052434295 -0.09518262 0.22565188 0.22034092 0.40561283 0.71921384 -0.24427274 -0.16368437 0.039162647 -0.22447437 -0.19367442 0.4028205 0.25417098 0.42232206 -0.17075853 -0.15480348 0.05573549 -0.3227789 0.009004905 -0.43404698 -0.08620365 0.7381409 0.11198833 0.15885368 0.064793594 -0.17002091 0.48068216 0.35545468 0.03780469 0.099098116 0.41270566 0.1086564 0.654714 -0.19549587 -0.2197227 0.19431137 -0.22364268 0.13707267 0.28578675 0.031215342 -0.64457464 0.6170914 0.3439533 -0.038626757 0.01686668 0.39758357 -0.34860083 -0.2974257 0.16947307 0.23978567 0.006576001
you 0.29746592 -0.26941565 0.579213 -0.5866622 -1.058892 0.7351418 0.9076691 0.451312 0.042625155 -0.26866084 1.1058139 -0.06715208 -0.8942581 0.20473099 0.35073233 -0.04731032 -0.6865273 -0.40793595 0.42566028 0.111406356 -0.22800806 0.27701002 -0.24869806 0.67902714 -1.1659938 0.53837556 0.37077692 0.71024543 -0.4705334 -0.36093202 0.47959882 -0.2992356 0.99533015 0.2670055 0.010339372 0.5757296 0.17807943 0.54240805 -0.3661989 0.20360474 -0.42266145 -0.7615809 -0.41710982 1.2754623 0.9458525 0.07522036 0.24722083 -0.043683622 1.3148439 -0.23582569 0.7820798 0.19027819 0.7378625 1.0348264 0.8584659 -0.14948322 -0.4027112 -0.3802857 -0.36062223 -0.80138135 0.38143703 0.42455477 0.050036937 -0.81967765 -0.24645376 -0.0015916888 -0.31667918 0.043271024 -0.30360457 -0.19769599 0.8702651 1.1391417 0.17347266 -0.20021778 -0.14437982 0.29291427 0.5712254 0.43618703 -0.2566366 -0.16380183 0.132863 -0.07620596 -0.20752902 0.6166159 0.11786508 -0.44165537 -0.8204575 0.0010125194 0.56826407 -0.017100215 0.10648235 0.026698941 0.8486991 0.03233404 -0.1341991 -0.72745025 0.8820594 -0.07645247 -0.84296167 0.088837996
is 0.38304913 0.63795394 0.27154142 -1.0391275 -0.1999227 0.38942668 0.15638901 0.5478321 0.00725406 0.039243538 -0.0063025644 0.6149685 0.38631114 -0.26238823 0.39436406 0.08600627 0.38735387 -0.66468614 0.32804596 0.14542398 -0.1259948 0.40812168 -0.1840592 0.3464929 -0.08941097 -0.15580556 0.9596431 0.6031169 0.028454151 -0.011637032 -0.25875798 0.04322258 -0.03212626 -0.08903972 0.5876758 0.7256083 -0.18521789 -0.12481821 -0.21004795 0.18928194 -0.20891535 -0.009393257 0.31938127 0.70727414 0.0024058565 -0.11285704 0.22340693 -0.7265416 -0.18050249 0.028067349 -0.33523136 0.2985507 0.0694608 0.3389345 0.8582707 -0.18004146 -0.12742549 -0.17196596 0.11752082 -0.05407936 0.6549576 0.2911415 0.34061673 -0.38215584 -0.12138087 0.18896864 -0.057814233 0.18274216 -0.4469187 0.16942474 0.5512322 0.106207706 0.23430587 0.12586154 -0.18341975 0.53550553 0.23356916 0.10625252 0.23669554 0.33274323 0.26295105 0.74781317 -0.45095703 -0.34783778 0.0678964 -0.355953 0.18128209 0.33541343 -0.28896332 -0.47148123 0.70146185 0.112839535 -0.025116876 -0.26719218 0.48568615 -0.41943708 -0.34719205 -0.31631863 0.32327047 0.10033872
we 0.8738914 0.48456168 0.48326668 -1.0591836 -1.3649925 0.39603508 0.48855612 0.38152218 -0.0053804517 -0.25972453 0.07158859 0.23427196 -0.8118392 0.24528456 0.34048197 0.10530898 0.4496133 -0.5309214 0.6906801 0.3220796 0.4086124 0.7462512 -0.55347025 -0.26870066 -0.68042326 0.18385966 1.4908257 0.76711875 -0.099622786 -0.061016858 -0.42154872 -0.086288415 0.7224699 0.2582915 0.39487383 0.57259977 -0.09195839 0.35975832 0.054704785 -0.441545 -0.023644187 0.27285662 0.08100089 0.9059991 0.43690574 -0.17654146 0.6390405 -0.30245733 0.42253038 -0.36053997 -0.66624874 -0.026405001 0.29288113 0.87236726 0.95475245 0.46609834 -0.53623825 -0.3688621 0.62609845 -0.33024353 0.75492084 0.39458403 -0.09656469 -0.5411529 -0.21294214 -0.1677047 -0.4402439 -0.52045983 -0.90174633 -0.15741 0.65990216 0.42944667 1.1025066 0.0053389906 -0.6256327 0.956098 1.1595496 0.63825387 0.19471674 0.08048443 -0.0076681254 -0.045445923 -0.47349322 0.11483658 -0.4763898 -0.82246155 -0.24766316 0.7672567 -0.21556869 -1.0220203 0.7530286 0.6006821 0.38982025 0.5287986 0.2312012 -0.80352634 -0.34412143 0.67052317 0.29304647 -0.11510377
in 0.25559285 0.18774708 0.2289321 -0.56212646 0.16698946 0.5751851 0.2863589 0.45151296 0.02846307 0.2830749 0.08805876 0.16229188 0.20021187 -0.092892714 0.16476591 0.10737768 -0.51979136 -0.5966597 0.10811218 0.25525415 -0.42201826 -0.24096502 0.13134868 0.5847087 0.056631695 0.22640342 0.38203523 0.27942696 -0.21952777 0.02603948 0.043998726 0.09754539 0.04827703 -0.094573654 0.7012375 0.30455968 -0.21375789 -0.19253965 0.008807122 0.33001232 -0.21581595 -0.25578335 -0.10337121 0.88100094 0.16351981 0.11661385 0.2705924 -0.10533066 0.23902838 0.40690908 0.32562014 0.25773463 -0.08252318 0.1473086 0.35923603 -0.21248287 -0.20550072 -0.034218404 -0.43593636 -0.11483216 0.39714015 -0.036573295 0.77064353 -0.4380749 -0.52741456 -0.057748273 -0.17594448 0.55384994 0.08846338 -0.09469437 0.69047534 0.39306575 -0.14448965 0.1872465 -0.16984153 0.6008066 0.09978526 -0.26832592 -0.18495266 0.5522427 0.25053662 0.8184694 0.18692581 -0.5767228 0.55964327 -0.07072772 -0.05972516 0.17677435 0.203658 -0.72891563 0.46320662 0.14609137 0.0750707 -0.21394366 0.3628512 -0.3109857 -0.18241473 -0.6758543 0.11251631 0.21693046
this 0.16898769 0.6079401 0.25640577 -0.9167816 -0.29897818 0.21764351 0.2643111 0.4660369 -0.04477266 0.20905782 -0.036890466 0.44404444 0.18878074 -0.3566683 0.36721808 0.09603627 0.042888273 -0.8471417 0.4734616 0.42900306 -0.12053046 0.4848749 -0.3345529 0.4160694 -0.06489952 -0.2388812 0.98458034 0.5138499 0.06148027 0.30516422 -0.22759055 -0.0957008 0.011811808 -0.03802298 0.3976736 0.27503404 -0.17115864 -0.0986086 -0.15029122 0.28279477 -0.32832697 0.019393135 0.15104754 0.5455361 -0.017505167 -0.12251756 0.2667152 -0.58801585 -0.18864357 0.18547755 -0.3080882 0.028168764 -0.1147941 0.44509977 0.7467303 -0.10887309 -0.14854522 -0.21075606 -0.059257492 -0.17344515 0.6815052 0.38910553 0.32275727 -0.5032361 -0.31205946 0.14902443 -0.16618435 0.101431176 -0.27481106 -0.15288915 0.555286 0.09155676 0.31760722 -0.01100102 -0.22363196 0.47016364 0.36082247 0.021141669 0.15797456 0.41962695 0.0963337 0.6671624 -0.37907282 -0.29955274 -0.06336768 -0.2804458 0.18442312 0.36980838 -0.048411835 -0.75653 0.5765285 0.34449115 -0.14497429 -0.16150267 0.34570372 -0.1811823 -0.38903892 -0.1109157 0.19592342 0.035971504
have 0.24743544 0.09464703 0.08844912 -0.6902457 -0.7152958 0.47000423 0.20313646 0.52785504 -0.09674552 0.1415811 0.07957916 0.011738036 -0.6019305 0.14198656 0.32752532 -0.018095685 -0.1418309 -0.13167818 0.28402793 0.25421882 -0.13141562 -0.22605985 -0.19510162 0.13579892 -0.5091483 0.46029484 0.5740812 0.43571708 -0.084197015 -0.2573186 0.0026445254 0.2105307 0.3182405 0.06759111 0.41405866 0.31289 0.0886608 0.16833626 0.08570622 -0.25126225 0.22261053 -0.3769181 -0.20809956 0.8129285 0.5586339 0.1331282 0.24761897 -0.08063187 0.5409398 -0.023141144 0.11153494 0.22194898 0.34221062 0.45973983 0.6247371 0.039339792 -0.6100117 -0.24072926 -0.14108774 -0.11154416 0.56169534 0.5294582 0.16458243 -0.5528316 -0.27770784 -0.25762072 -0.47007388 0.41704065 -0.38251057 -0.09668957 0.6127532 0.2691682 0.5635995 -0.15088683 -0.35730246 0.4747735 0.5681519 0.3956119 -0.101135746 0.31003907 0.44921845 0.45240563 0.19962305 0.03570321 0.14413406 -0.5364045 -0.39445484 0.47704 0.14565764 -0.4403497 0.5776618 0.09669153 0.01846797 0.12770185 0.13801962 -0.7566104 0.18949857 -0.2255387 0.029188046 -0.039994244
it -0.07171218 0.13410994 0.15750928 -0.3705499 -0.33078074 0.3526403 0.2558645 0.47231132 0.06431104 -0.16518673 0.6273784 0.30228132 0.032119736 -0.3080875 0.36699045 -0.016435755 -0.62290466 -0.48078504 0.0972915 0.107932955 -0.28073224 0.3330406 -0.035800975 0.9994295 -0.5907643 -0.08254807 0.24878219 0.58624446 -0.334199 0.034594882 0.38200983 0.050290942 0.40217158 -0.048045885 0.19249436 0.5770129 -0.036863174 0.07589615 -0.5171564 0.61431426 -0.59329695 -0.74908185 -0.118150435 1.0477161 0.4419672 -0.010918048 0.11771394 -0.4667235 0.40357503 0.18713295 0.7733544 0.377854 0.47082746 0.6067661 0.9606549 -0.726553 -0.026608875 -0.08217321 -0.86691743 -0.62567073 0.43788508 0.5401177 0.54923654 -0.38360322 -0.14365514 0.24951334 -0.24378587 0.2190967 -0.047073726 -0.25514215 0.8678444 0.7286477 -0.2087854 -0.2097925 -0.040039957 -0.007923477 0.003616485 -0.023791647 -0.14187256 0.19922692 0.12302704 0.6491117 -0.1866296 0.3003321 0.31291798 -0.1123182 -0.10008449 -0.16584043 0.5548775 -0.035320606 0.099973276 0.0132852355 0.20868614 -0.45122272 0.06572652 -0.23821516 0.53254354 -0.17967689 -0.58120245 0.273388
for 0.37991634 0.22817504 0.25417614 -0.67525923 0.028088601 0.55815667 0.25826833 0.34215847 0.014336344 0.27366534 0.06872968 0.13009295 0.04652538 -0.018904913 0.14889455 0.097967915 -0.3210149 -0.5605966 0.12808245 0.2615676 -0.20383006 -0.21652104 0.06711369 0.42584348 0.034036074 0.26037946 0.5052101 0.23654927 -0.1318981 -0.013510069 -0.04067693 0.134661 0.09465424 -0.08492529 0.7533565 0.29741833 -0.13079783 -0.15629032 0.0932958 0.18384989 -0.06663839 -0.18307522 -0.109445035 0.85809934 0.21310031 0.027224295 0.28250885 -0.13988999 0.2566943 0.30851063 0.121441275 0.22002195 -0.058964938 0.19076103 0.37309077 -0.071648814 -0.27616966 -0.053250846 -0.231038 -0.08147487 0.43157858 -0.008089703 0.7046429 -0.41501662 -0.5723334 -0.1417907 -0.2546902 0.48229757 -0.047205176 -0.14780782 0.6574304 0.28567827 0.07600833 0.24724635 -0.16829789 0.692485 0.2440797 -0.16134675 -0.16349944 0.5592848 0.18875995 0.828738 0.12790442 -0.5562341 0.5269252 -0.17180401 -0.08682402 0.27871674 0.09557668 -0.82863873 0.58667046 0.20190133 0.07874796 -0.08062113 0.3634716 -0.40694815 -0.27163616 -0.5239827 0.28472975 0.13432187
just 0.2166394 0.37225914 0.22795428 -0.77930677 -0.5225937 0.3673637 0.19334373 0.46108836 -0.029599587 0.19002251 0.1715235 0.20747961 -0.10417203 -0.12962592 0.331165 0.056947455 -0.04300245 -0.6030916 0.36473975 0.31618363 -0.10275553 0.19113642 -0.215575 0.35930845 -0.20528778 0.13253072 0.83983135 0.5119338 -0.027285928 0.10779656 -0.12352724 0.12733762 0.25398442 -0.053354975 0.38938794 0.39212668 -0.061691526 -0.029993458 -0.07020737 0.07261504 -0.2328043 -0.23526144 0.0293554 0.6819751 0.27059948 -0.08153553 0.2691766 -0.2707914 0.20250542 0.1128207 -0.09496377 0.12588106 0.13724464 0.38889936 0.654464 -0.08499334 -0.33594173 -0.12508795 -0.10721719 -0.20938136 0.5395433 0.3524771 0.23201914 -0.48290798 -0.22762024 -0.071345516 -0.2647748 0.23767337 -0.32261488 -0.14494835 0.63330823 0.110571854 0.3163969 0.005276113 -0.21735829 0.46896514 0.42774215 0.17575163 0.03213405 0.38707352 0.24852641 0.6471644 -0.19664487 -0.21228175 0.08083744 -0.28399956 -0.04847548 0.3432263 0.02731289 -0.6702686 0.5363879 0.27603418 -0.11631174 -0.070530996 0.2636885 -0.45281795 -0.105203465 -0.12326018 0.14636613 0.012133388
then 0.27910197 0.32272583 0.19445555 -0.7962522 -0.57133186 0.35785878 0.19370723 0.37540537 -0.21989192 0.074523166 0.13209349 0.16876858 -0.28612894 -0.08500107 0.19445632 0.08951568 0.12710714 -0.47888228 0.33041686 0.3170021 0.10772564 0.20145637 -0.2821036 0.1382438 -0.3094927 0.24891356 0.9365221 0.55147916 0.0062700002 -0.0072078267 -0.21146221 0.06955473 0.38064602 -0.0019498954 0.43653426 0.5605612 -0.028524475 0.025634246 0.037454087 -0.28813714 -0.024297792 -0.046029016 0.007861055 0.72752714 0.34844872 -0.11212359 0.39067814 -0.20581242 0.3700089 -0.009827955 -0.27033144 0.09873146 0.12984724 0.5574373 0.6501053 0.11095716 -0.5087147 -0.23181601 0.19657145 -0.14766622 0.61848617 0.43935546 0.034862813 -0.5467457 -0.17833173 -0.19000274 -0.32456806 0.15855218 -0.5331667 -0.19220386 0.5704962 0.14075035 0.64752823 0.06915682 -0.19321382 0.6463936 0.63514405 0.38075206 0.0275557 0.3917711 0.24267547 0.5765065 -0.23728351 -0.12939544 -0.028305158 -0.42802125 -0.17723915 0.5488408 -0.046088915 -0.8184487 0.6316307 0.3139525 -0.028488144 0.10752287 0.18657376 -0.6197018 -0.12070881 -0.02738772 0.20782088 -0.117275134
are 0.4462981 0.16167684 -0.019452693 -0.28515106 0.119597964 0.65016097 0.12601236 0.243718 0.28700647 0.057067286 0.017342491 0.15854475 0.076474085 0.31249422 -0.1174818 0.05466916 -0.6066525 -0.12661147 -0.13639815 -0.059156552 -0.36857122 -0.4614377 0.34666064 0.47272915 0.15530042 0.4734995 0.01913515 0.29382765 -0.52949595 -0.31864914 0.08301596 0.6096495 0.36306807 -0.037242804 0.7840824 0.50592214 -0.29470706 -0.31003523 0.04853772 0.21983376 -0.101694666 -0.42723912 -0.1332329 1.4744542 0.5611995 0.17206196 0.4053657 0.10553765 0.38582265 0.49193296 0.8601504 0.45999038 0.16731723 0.049432945 0.30002886 -0.20528623 -0.27960464 0.08669978 -0.6930036 -0.05261446 0.32735515 -0.16268028 1.2526766 0.31246638 -0.4395878 -0.26528093 -0.4405278 0.607093 -0.03284135 -0.06628904 1.014086 0.45595488 -0.21153456 0.1104982 -0.2396149 0.5849842 0.07485624 -0.2673497 -0.4004664 0.5352253 0.33159298 0.7837482 0.760274 -0.4954755 1.0040976 -0.020243179 -0.10486808 0.15353763 0.19580254 -0.7116298 0.48632267 0.07522805 0.0704873 0.13503997 0.40859535 -0.4314239 -0.2636603 -0.45688096 0.38763633 0.1580857
can -0.07965875 -0.022263722 -0.0014141619 -0.30625826 -0.72666794 0.35873225 0.2566163 0.59948224 -0.097416066 -0.17004715 0.39316946 0.039937407 -0.6629798 0.17596029 0.34864506 -0.09586094 -0.55554307 -0.10437395 0.17007199 0.2772888 -0.26450402 -0.032980315 -0.05852401 0.45801574 -0.76116204 0.3546764 0.2328323 0.6040039 -0.19836475 -0.3010267 0.29963705 0.068775654 0.325857 0.19984381 0.20206612 0.43304345 -0.012237424 0.32775176 -0.3291983 -0.025165625 -0.13677709 -0.70375067 -0.43017662 1.0499363 0.7703629 0.20058213 0.16252635 -0.052529484 0.7105893 0.028888475 0.622382 0.3991508 0.6945187 0.6560505 0.8106258 -0.45630878 -0.40976542 -0.19785358 -0.7872185 -0.3892167 0.45392507 0.7499341 0.25522503 -0.5214648 -0.2337562 -0.1085121 -0.5546056 0.41706872 -0.20001833 -0.17515682 0.707157 0.69323987 0.29521054 -0.29982057 -0.4127766 0.14338997 0.425287 0.22051784 -0.37451354 0.22662498 0.39741385 0.33409134 0.30173874 0.39556113 0.30140948 -0.4680071 -0.39164257 0.17683788 0.5833927 -0.06729377 0.22306667 0.11989749 0.20489027 -0.14904276 0.019855743 -0.6829397 0.68552876 -0.11665421 -0.5880591 0.12542084
but -0.033415936 0.2062379 0.063831806 -0.302703 0.15709187 0.48683444 0.28127217 0.5093546 0.1476997 0.084252745 0.44525662 0.2918666 0.08669026 -0.18444729 0.26959404 0.08621729 -0.74854994 -0.42919332 -0.03314526 0.098465964 -0.38928726 -0.06618285 0.2132164 0.96452296 -0.20877884 0.058912545 -0.00025477042 0.38066024 -0.46736574 -0.064528055 0.41446137 0.09851437 0.11564223 0.048677776 0.44477823 0.28964254 -0.1393929 -0.06354362 -0.48160756 0.6844075 -0.42659554 -0.7413367 -0.3535489 1.0521127 0.38499233 0.13777845 0.049146008 -0.36096278 0.30489087 0.5224632 0.93220586 0.39604592 0.31406826 0.2761515 0.55334127 -0.7214571 0.003410588 -0.017188456 -1.1073215 -0.5120548 0.36980367 0.31897822 1.0358678 -0.22408067 -0.4721746 0.14547065 -0.33593783 0.51065314 0.2153479 -0.2697384 0.99544024 0.81018615 -0.4256191 -0.032385927 -0.17856283 0.16714217 -0.12448154 -0.3966293 -0.33968142 0.37509194 0.16425829 0.7878532 0.24838689 -0.017867943 0.74477255 -0.008234813 -0.12216903 -0.24347101 0.6018711 -0.15772872 0.10208033 0.050705716 0.18993917 -0.39728543 0.19181392 -0.109364614 0.3787185 -0.4045602 -0.38403633 0.34187055
on 0.17977498 0.26097375 0.23766437 -0.6844977 -0.14455168 0.492349 0.20361562 0.35815403 0.05562671 0.111011796 0.3517638 0.31631342 0.14133562 -0.13510285 0.28917617 0.07574674 -0.2852238 -0.61302876 0.11371122 0.22369406 -0.20849067 0.1499175 0.04810548 0.64537144 -0.114764236 0.03658437 0.56451267 0.4420785 -0.15884338 -0.00782688 0.03893975 0.04777292 0.24458773 -0.12349064 0.58841246 0.5727199 -0.11920126 -0.13167828 -0.16681889 0.26322094 -0.31316966 -0.37325034 -0.049225647 1.0069313 0.26742423 -0.033023424 0.2894886 -0.31447318 0.24480955 0.22608729 0.24426374 0.3560907 0.17084514 0.3947475 0.6531512 -0.3258131 -0.24209304 -0.0055278675 -0.40730926 -0.22759886 0.38170946 0.20807897 0.6176981 -0.34276286 -0.2689734 0.04596617 -0.24025491 0.2151922 -0.12865923 -0.14098129 0.6773337 0.3666828 -0.01104321 0.17023703 -0.051511068 0.4931153 0.1388159 -0.11732851 -0.12156572 0.46760228 0.13463382 0.7629299 -0.07662513 -0.2633357 0.42907086 -0.13702843 0.033097662 0.16672203 0.14183035 -0.5164137 0.44625592 0.20806132 0.14395173 -0.18636799 0.38464683 -0.30958697 -0.039344028 -0.23273937 -0.052579667 0.13828129
do 0.066814676 0.3484761 -0.0056744358 -0.508574 -1.0529556 0.05586926 0.24329749 0.34853455 0.0050375923 -0.6252298 0.3816032 0.34565032 -0.7204244 -0.063645676 0.60136783 -0.08078716 -0.053407345 0.004138952 0.26467407 0.04519034 0.1255759 0.65316254 -0.31297535 0.42733452 -1.0114433 -0.22901306 0.7335614 0.7227709 -0.11319386 -0.20902538 0.1395286 -0.08646081 0.40218905 0.26042405 0.1977534 0.75648296 -0.033276033 0.35316974 -0.61764586 -0.039640613 -0.08751694 -0.5351523 -0.3230955 1.0233173 0.775272 0.03154401 0.09579476 -0.7124945 0.304097 -0.24009542 0.36574334 0.4563274 0.9944681 1.0272206 1.3234389 -0.67270845 -0.17827646 -0.29963621 -0.60798997 -0.54400516 0.6393374 1.2541798 0.22396877 -0.25671798 0.0063664746 0.32063454 -0.6705103 -0.15773185 -0.50880295 -0.113906845 0.7574785 0.81577337 0.6143978 -0.35513255 -0.3674209 -0.013078176 0.5297309 0.41102275 -0.030430501 0.14209141 0.15374395 0.3338577 -0.099352665 0.86928636 0.12329079 -0.77135557 -0.15008113 0.28767747 0.46265936 0.32161045 0.3440114 0.18815683 0.41696912 -0.19316138 0.10412551 -0.557081 0.6303705 0.46656254 -0.4883732 0.12272688
i 0.02027907 0.087996796 0.26816225 -0.5984415 -0.3462894 0.65717965 0.42630798 0.5725103 0.41999355 -0.0819387 0.83551633 0.36080173 -0.015548113 -0.045526236 0.75186247 0.11069098 -0.8566893 -0.5360999 0.16400135 -0.13204415 -0.8265534 0.35483098 0.116657205 1.1617862 -0.27423942 -0.106416084 0.12892352 0.5349302 -0.6260101 -0.004450365 0.45079997 0.233202 0.2342731 0.112614565 0.14036143 0.4626757 -0.20031065 0.026695533 -0.8364256 1.0354314 -0.7528903 -1.0861478 -0.34263453 1.2737714 0.37275812 0.17747033 0.038702715 -0.51806796 0.35477796 0.37939203 1.1513282 0.5774811 0.50851995 0.43664804 0.7666051 -0.9357843 0.046802346 0.17581801 -1.3250172 -0.79160464 0.05474493 0.2491647 0.92942333 -0.15220138 -0.28207797 0.34543622 -0.40789762 0.26746303 0.34678504 -0.071653694 1.002741 0.84781295 -0.7985921 0.007127457 -0.25372013 0.03217907 -0.117881835 -0.444866 -0.47506973 0.3245848 0.15202719 0.7502456 0.12349971 0.108495414 0.7131966 0.17156346 -0.16852334 -0.52414656 0.55497897 0.079677425 -0.030241737 0.19203809 0.32875583 -0.48427114 0.38798702 0.15664929 0.5649011 -0.07736082 -0.66565615 0.4649408
it's 0.04270978 0.3694926 0.1993623 -0.4993304 0.3331092 0.53097063 0.17840593 0.52821654 0.14251456 0.17129026 0.4525816 0.44423658 0.518875 -0.37202904 0.24123101 0.14306091 -0.469845 -0.6324223 -0.008352049 0.08116152 -0.28692132 0.0040621962 0.13975824 0.9903884 -0.06056085 -0.09598105 0.1829849 0.4256613 -0.33346972 0.018938174 0.24897344 0.15872303 0.06201639 -0.17313737 0.54909515 0.46856326 -0.06582381 -0.22483882 -0.39953783 0.77036375 -0.5257713 -0.685867 -0.018698348 0.90923643 0.16519189 -0.049545083 0.0944085 -0.64020985 0.12540753 0.50937 0.61090636 0.38958755 0.06980519 0.17241652 0.62377006 -0.6280525 0.032205284 -0.028726662 -0.73381406 -0.4126938 0.4588795 0.1483071 0.99760264 -0.2539444 -0.3407822 0.19608851 -0.13389322 0.51583177 0.09073387 -0.1848784 0.9022818 0.4305469 -0.47051272 0.11534468 0.030469904 0.3145372 -0.2202171 -0.36467612 -0.08409819 0.37304914 0.12175242 1.0576489 -0.15141518 -0.2929285 0.6563131 0.07362835 0.041242372 -0.2315513 0.30675298 -0.33812487 0.26523897 -0.04757887 -0.0030985076 -0.4722817 0.29521134 -0.11228721 0.07883097 -0.52461743 -0.08768942 0.27043423
be 0.28382686 0.47259477 0.11238258 -0.38082126 -0.23202294 -0.07988209 -0.0006096633 0.13597174 -0.15170895 -0.4736812 0.5157415 0.5469758 -0.067161344 -0.33719006 0.1473416 0.10950407 0.12126209 -0.24102876 -0.052010767 0.0894838 0.52863455 0.4720628 -0.11357182 0.58830065 -0.6257268 -0.17843434 0.71689135 0.5732011 -0.13368693 -0.07586267 0.105038136 0.018402813 0.44118685 0.05368849 0.6009762 0.9273754 0.06718583 -0.110160396 -0.3667018 0.09260621 -0.213136 -0.29685867 -0.10592933 0.9698983 0.4534881 -0.22099183 0.25464317 -0.86781424 0.110302135 0.03699715 0.25797665 0.35593417 0.66409343 0.8064313 1.0065542 -0.50511295 -0.056172334 -0.20367387 -0.27249342 -0.4498907 0.664053 0.99033237 0.5176099 -0.17552954 0.12425823 0.20451427 -0.43174803 -0.11055118 -0.48152778 -0.3452396 0.8639924 0.62363416 0.52948654 -0.07381047 0.026524017 0.2980709 0.2311428 0.1426515 0.011704787 0.42708012 -0.016405199 0.79844266 -0.5615136 0.3497187 0.40048063 -0.65076023 0.08125041 0.35059717 0.36739907 0.07100835 0.38067555 -0.027951466 0.32023802 -0.34076124 0.1327856 -0.63287824 0.25165856 0.20225008 -0.032911167 0.062251475
as 0.16695023 0.19970125 0.21938588 -0.7329137 -0.39211485 0.37727514 0.2958856 0.4682388 -0.14274064 0.13353823 0.14645493 0.11741737 -0.25055668 -0.10608967 0.29078695 0.0045352597 -0.17286627 -0.51012415 0.27275085 0.36006036 -0.13885398 0.006661728 -0.17952612 0.3292986 -0.31728 0.25659108 0.65767395 0.42701748 -0.024741948 -0.014169774 -0.0037350971 0.04742024 0.25277022 0.014241682 0.5068013 0.40562364 -0.049704324 0.01562067 0.0038890836 0.03234872 -0.08045006 -0.2298307 -0.044262633 0.7310871 0.34386745 0.050627373 0.27368975 -0.18185364 0.34609938 0.08587898 -0.016826963 0.12381368 0.12983708 0.48330215 0.57146126 -0.08108223 -0.32028094 -0.2359826 -0.15624708 -0.25342792 0.5391712 0.4246753 0.16839036 -0.7035035 -0.36738 -0.076872714 -0.27010068 0.28967538 -0.2784734 -0.17012005 0.58109856 0.3114877 0.4396256 0.0002903558 -0.22653449 0.53014374 0.44812703 0.18122442 -0.051988564 0.39740172 0.26628017 0.6133066 -0.11925631 -0.18480013 0.13839327 -0.37242886 -0.21320997 0.41492364 0.11790976 -0.7102659 0.5472795 0.17648874 0.05177672 -0.100508206 0.18921413 -0.6347936 0.05697227 -0.30053824 -0.027688628 0.06398978
with 0.33495283 0.4864675 0.114951976 -0.70253044 -0.1038538 0.32522187 0.1985146 0.41980454 -0.12782921 0.12970805 -0.14388874 0.36780837 0.00550552 -0.14998998 0.11804523 0.14794369 0.114616975 -0.49448147 0.32950452 0.32374948 0.037587646 0.13412444 -0.16094248 0.22677225 -0.08741634 0.15511197 0.7897329 0.46762285 0.0051782764 0.009328629 -0.29945388 0.06948361 0.052056603 0.07334616 0.65068424 0.50781035 -0.19318596 -0.18500797 -0.05960654 -0.11162008 -0.04958239 0.040576946 -0.035781633 0.7038208 0.16128077 -0.058157183 0.35329247 -0.35156348 0.08245456 0.2143778 -0.22911668 0.061796922 -0.028918842 0.41418436 0.5723096 0.113633595 -0.28592655 -0.28963503 0.008489035 -0.10874874 0.67814654 0.35234994 0.42906645 -0.39876518 -0.32350507 -0.08490242 -0.22092496 0.33298892 -0.34656957 -0.14027451 0.668709 0.23512354 0.49109483 0.0688501 -0.21156652 0.71700287 0.43492773 0.10652489 0.05197734 0.49611005 0.2603306 0.6797292 -0.07247256 -0.38153988 0.22559157 -0.40107954 -0.010272906 0.5452309 -0.03107665 -0.81114715 0.67790025 0.22968265 -0.08977137 -0.059935942 0.30439684 -0.4965568 -0.35672152 -0.24997672 0.43167818 -0.017775053
all 0.5077334 0.40968025 0.3454791 -1.0067482 -0.8638188 0.51293224 0.2717884 0.19097689 0.08594529 0.37309507 -0.023139607 0.09456478 -0.20523457 0.2371674 0.27950838 -0.050571255 0.1238642 -0.55082846 0.58905345 0.33210173 -0.17497955 -0.061672054 -0.20113462 0.13276647 0.2882457 0.34598547 1.0361814 0.3669715 -0.027602548 0.023009026 -0.45890176 0.47472537 0.46402848 -0.16049539 0.44196135 0.4206723 -0.22691123 -0.21709757 0.31041268 -0.22995433 -0.13162324 -0.039466653 0.2048965 0.8564306 0.4111584 -0.17330366 0.40658247 0.09102489 0.28015596 0.18463746 -0.27295905 -0.04663176 0.09217148 0.29985005 0.2965199 0.41978836 -0.62346214 0.018484635 0.20357284 0.08430582 0.31122693 0.021240987 0.27400735 -0.033235777 -0.19804089 -0.39840493 -0.39685276 0.25053468 -0.5417598 -0.08446892 0.6233315 -0.3104005 0.45675182 0.09868893 -0.10415684 0.72834635 0.57917506 0.39919123 0.068090014 0.4551462 0.38285762 0.615197 0.14982918 -0.5542851 0.21512568 -0.21909724 -0.14672033 0.5555246 -0.37423643 -1.190854 0.8600401 0.51119536 -0.28055575 0.36474165 0.4916176 -0.3808207 -0.6184979 -0.09123514 0.66072655 -0.15912983
here 0.542707 0.5562435 0.3688988 -1.1626107 -0.9163746 0.31389543 0.15019527 0.40681696 -0.0145694185 0.23925726 -0.16786113 0.20989291 -0.1546023 -0.01037936 0.32614654 0.0810576 0.48691815 -0.7265528 0.6637099 0.4179799 0.07736375 0.3867185 -0.45029864 -0.11371279 -0.027536506 0.15422367 1.4203202 0.6013357 0.18832378 0.2114528 -0.5386899 0.20963115 0.37562567 -0.11831993 0.4734123 0.40630695 -0.14770927 -0.098719776 0.24858324 -0.28120965 -0.10617384 0.16320439 0.43055323 0.5954736 0.14143273 -0.20721574 0.46471825 -0.1654059 0.04500424 -0.09234895 -0.8239333 -0.06546826 -0.093697414 0.42200327 0.66649747 0.38599285 -0.56086564 -0.123653054 0.5793465 0.055513952 0.6394528 0.166624 -0.13857818 -0.57529217 -0.17724428 -0.23172292 -0.20063819 -0.050284546 -0.74422735 -0.047201984 0.51526225 -0.32181165 0.80039585 0.067570575 -0.27653766 0.8848474 0.8168772 0.48652142 0.3085826 0.40910336 0.27810344 0.5618385 -0.4239697 -0.49006405 -0.33552858 -0.44405586 -0.008428017 0.7542115 -0.4296855 -1.314864 1.0127889 0.48514855 -0.28131065 0.26367685 0.382488 -0.61850816 -0.6500822 0.11186319 0.63263154 -0.21363641
one 0.19069056 0.3585907 0.31332776 -0.93936175 -0.39064878 0.49541226 0.34249938 0.40912583 -0.055879593 0.35892683 0.040061347 0.13865009 0.06292842 -0.18493928 0.2167281 0.03737914 -0.13076136 -0.66589934 0.423604 0.33975354 -0.32366166 0.07052779 -0.24973561 0.3703934 0.041570578 0.1050583 0.7784254 0.41874683 -0.030971967 0.18574141 -0.14083983 0.08135339 0.22510159 -0.09527656 0.37519267 0.28278604 -0.113057956 -0.11796623 0.06034488 0.15515998 -0.24501695 -0.058936663 0.12388092 0.6373959 0.16136077 -0.109615706 0.23298684 -0.16539319 0.1629013 0.22498041 -0.08665492 0.0027934946 -0.08074395 0.35565698 0.4631589 0.041439466 -0.3532917 -0.14265105 -0.049021218 -0.114974715 0.57362556 0.13844001 0.26567295 -0.4467868 -0.3785583 -0.0739245 -0.10779523 0.3396911 -0.22618137 -0.1358552 0.59186083 0.04974266 0.1821789 0.024373239 -0.10011119 0.41045448 0.34118015 0.12802835 0.06672372 0.3928227 0.30221903 0.63044566 -0.08242421 -0.37800655 0.055439375 -0.1543283 -0.038119413 0.33766672 -0.063756235 -0.80854505 0.5278829 0.22885606 -0.18476225 -0.04506793 0.26086417 -0.2858651 -0.26364172 -0.37875745 0.28845057 0.0031313074
what 0.0873298 0.7199306 0.04420312 -0.49670988 -0.6139938 -0.12538747 0.13793065 0.17464682 -0.053210128 -0.41944596 0.0026712054 0.42885035 -0.069370486 -0.32824922 0.33844185 0.088916816 0.13952696 -0.38072574 0.4059907 0.22708847 0.22481687 0.7997548 -0.31495002 0.3718289 -0.38756362 -0.4503784 1.0867947 0.7305982 0.02985985 0.22229883 -0.2550327 -0.10315916 0.16669458 0.058026616 0.2926853 0.6699102 -0.26062962 0.06894442 -0.45551744 0.02550573 -0.37411827 -0.07845906 -0.017390657 0.7590508 0.4324334 -0.23266642 0.17553139 -0.6673976 -0.17551 0.080966145 -0.09229794 0.16257073 0.5209319 0.834354 1.1203378 -0.5343402 -0.08463484 -0.22490612 -0.33154145 -0.2550017 0.72143006 0.95442563 0.36471853 -0.06288364 -0.07627292 0.2749079 -0.45544636 -0.09180969 -0.55221754 -0.19373606 0.7224155 0.4166819 0.51162165 -0.1689584 -0.24062857 0.18148819 0.5161293 0.16414805 0.12940933 0.3856753 0.07919161 0.585356 -0.2974624 0.31210747 0.03724495 -0.50309026 0.27197096 0.40619633 0.18838504 -0.33021656 0.47219408 0.47193685 -0.027885312 -0.3169424 0.21660075 -0.22848463 -0.0982517 0.37153885 0.07785443 0.024666628
if -0.17881997 -0.004416785 0.1519257 -0.34888116 -0.7623643 0.3067605 0.28314033 0.44131795 -0.050116435 -0.14003815 0.68520874 -0.005624188 -0.45700246 -0.053664446 0.37712365 -0.084158674 -0.46483883 -0.24964352 0.28861734 0.25391635 -0.1888565 0.107491665 -0.115493394 0.706766 -0.7767636 0.27828655 0.44695246 0.6662282 -0.12833965 -0.10666317 0.30725572 -0.056272145 0.4725555 0.027822053 0.15767503 0.5464395 0.09151385 0.26893356 -0.4219312 0.12209756 -0.35321945 -0.8276854 -0.2958595 0.97615206 0.80331564 0.04546642 0.027875695 -0.09534481 0.7535781 -0.02931116 0.5530574 0.28385374 0.7210451 0.75310147 0.88721865 -0.56401634 -0.3582092 -0.18623556 -0.6503258 -0.45670688 0.42964914 0.76813483 0.09184943 -0.678331 -0.11265042 0.018137915 -0.3947064 0.35974205 -0.29537013 -0.18154326 0.7761374 0.6192051 0.18045369 -0.27963093 -0.08666287 0.08881157 0.36230823 0.25179097 -0.19341971 0.19955406 0.35347718 0.5158568 -0.07982569 0.4048079 0.25252768 -0.36388668 -0.34314078 0.077643685 0.58781344 0.030783229 0.2818361 0.09048584 0.19171019 -0.37445435 -0.009142449 -0.6557775 0.74135834 -0.20129164 -0.63897204 0.06293897
at -0.05825607 0.10044783 0.57954127 -1.4404477 -0.7382806 0.58264023 0.32232934 0.28401342 -0.0142689245 0.57478637 0.15902746 -0.016557802 -0.092353806 -0.14250764 0.40451616 -0.024502339 0.37825257 -0.74405485 0.6634678 0.34239954 -0.3365841 0.053099904 -0.41828087 0.27470914 -0.037919376 0.08369229 1.2635609 0.4326054 0.342668 0.004667577 -0.15095599 -0.0022845638 0.4697546 -0.3052474 0.60886 0.44907454 0.081729315 -0.16990171 0.110697016 -0.104014084 0.03303277 -0.20457084 0.17134441 0.7986835 0.2389905 -0.17543903 0.064877786 -0.10734004 0.49190462 -0.18454906 -0.53153545 -0.059872277 -0.020713005 0.49556684 0.3736239 0.40108642 -0.65935755 -0.1435582 0.49036923 0.0760909 0.5063075 0.15525475 -0.1681203 -0.8417185 -0.49501637 -0.056220397 -0.0028202538 0.42938074 -0.6014488 0.018165795 0.59536576 -0.21653599 0.5342376 0.087747805 0.24061112 0.6057901 0.45050707 0.5969773 0.15901889 0.47062588 0.4218738 0.7878923 -0.49553397 -0.4501824 0.047515307 -0.24485052 -0.18004005 0.6832412 -0.4369638 -1.084725 0.78371406 0.08818984 -0.19146109 0.0038336935 0.33836675 -0.5265052 0.031128844 -0.56544644 0.3394524 -0.3890864
sort -0.06549483 0.5784228 -0.060205165 -0.49127814 0.7226888 0.62019396 0.51814836 0.49383286 -0.13083808 0.44222403 -0.19762696 0.3982127 0.44027996 -0.59132665 -0.0444943 0.15262616 -0.89908427 -0.5345779 0.18849829 0.18370625 -0.60261613 -0.3471956 0.039628334 1.0264975 0.25950786 -0.073036425 -0.06830983 0.29491502 -0.5467002 0.040058877 0.1410019 0.040569138 -0.23745397 0.14359942 0.40482154 0.17111917 -0.31441367 -0.18670133 -0.34624383 0.690917 -0.38620552 -0.22538485 -0.47810444 0.7848762 0.14594744 0.02009408 -0.024518566 -0.4809712 -0.050522853 1.060876 0.95128953 0.08146388 -0.15954638 0.18464339 0.24054548 -0.3016302 0.03195886 -0.40069434 -1.0474305 -0.34720507 0.77754325 0.26494798 1.4051039 0.28638545 -0.69835526 0.1334804 -0.15149763 1.0317347 0.43246752 -0.32578766 0.9628656 0.70972604 -0.57863533 -0.1457411 -0.16814657 -0.12959617 -0.27051812 -0.46006867 -0.23705113 0.45019177 0.3026378 0.7174722 0.7308138 -0.27011925 0.7465531 0.14652927 0.009985103 -0.03739327 0.39361066 -0.26165584 -0.1660995 0.027148554 -0.31376317 -0.4192386 0.12290159 0.40486172 -0.18019599 -0.9693717 0.1835766 0.3844201
these 0.44714668 0.23315647 0.098541915 -0.5244931 -0.26281226 0.60748744 0.35608438 0.18262446 0.05076034 0.26372734 -0.19975808 -0.042201586 -0.32810983 0.25644094 -0.120767 0.042328622 -0.5419731 -0.33850685 0.2757154 0.2805518 -0.27101412 -0.34688565 -0.10186148 0.23397003 0.099840015 0.4958508 0.4415343 0.26655215 -0.31542486 -0.045125466 -0.12691624 0.36553016 0.4471697 0.084369585 0.5109018 0.19514313 -0.24892925 -0.1157255 0.184855 -0.08023817 0.004287371 -0.0776492 -0.25141087 1.1024684 0.5377128 0.050071668 0.41420358 0.22203612 0.4164133 0.43331903 0.3728999 0.022057239 -0.03156844 0.28368154 0.18658166 0.33399087 -0.44568008 -0.18778495 -0.31133518 -0.07869969 0.5485734 -0.01990973 0.8457486 0.037910238 -0.6168977 -0.4101605 -0.4442295 0.54953676 -0.12253456 -0.289798 0.83732486 0.3568827 0.30003473 0.0135999005 -0.33601168 0.65473443 0.47124422 0.0704691 -0.2724228 0.5130268 0.3122138 0.530586 0.70869833 -0.4942461 0.51138586 -0.2061484 -0.27429268 0.4590822 0.111963525 -1.1794721 0.5342102 0.375485 -0.08111354 0.3744888 0.29157165 -0.40236872 -0.46883836 -0.27634197 0.53977525 0.054504476
actually 0.095876865 0.24798644 0.091564886 -0.3789482 0.0051655844 0.41105336 0.25327885 0.45055875 0.059810553 -0.017449446 0.20686558 0.2633106 0.031571247 -0.17034055 0.23399994 0.053477645 -0.59026694 -0.44140747 0.04452124 0.19903305 -0.28485096 0.009118632 0.076774605 0.72312254 -0.2826229 -0.0064989584 0.28962225 0.4040102 -0.2943482 -0.010008874 0.21505247 0.043712787 0.1286259 -0.0005366056 0.5101944 0.3855503 -0.16373137 -0.0062402375 -0.29072195 0.45717537 -0.31340462 -0.4740752 -0.24047765 0.97060674 0.33748513 0.10103229 0.20206593 -0.34281448 0.20583656 0.379196 0.6082838 0.35987672 0.25818482 0.37489998 0.6726539 -0.5542696 -0.07735451 -0.07436429 -0.78992164 -0.36358303 0.47558635 0.3606674 0.83551854 -0.30569378 -0.41513836 0.13614808 -0.3203632 0.37954664 0.060039412 -0.21986218 0.7923423 0.67152905 -0.1357187 -0.01530305 -0.24768642 0.30270308 0.064439744 -0.23323731 -0.20876987 0.37581784 0.15957898 0.6901854 0.16430084 -0.079839684 0.51260996 -0.16477017 -0.035147097 0.018009363 0.4658823 -0.3332916 0.2477196 0.15891765 0.1965728 -0.33067843 0.23719317 -0.22373587 0.13746819 -0.3506144 -0.22184438 0.3003672
or 0.2293286 -0.09306732 0.35171834 -0.34358662 -0.039473426 0.5881872 0.36040846 0.45269084 -0.00079998263 0.15040667 0.52065927 -0.06029017 0.012177024 -0.016468057 0.0489955 0.069320805 -0.7774734 -0.57953423 0.18358876 0.24630512 -0.46849704 -0.26533404 0.1106086 0.7527358 -0.32793295 0.5554397 0.25637633 0.4726377 -0.28382218 -0.022853488 0.2763104 0.16897905 0.40217885 -0.03453544 0.4663567 0.5504254 -0.014281942 -0.0675634 -0.060729247 0.34837592 -0.42774534 -0.6089351 -0.22378857 1.0108652 0.5406019 0.012958039 0.28044355 0.07514424 0.70130295 0.25544974 0.5987933 0.29276463 0.16669898 0.2801175 0.5024617 -0.23428307 -0.33207455 -0.08715777 -0.4972238 -0.29578444 0.36155444 -0.028819345 0.4945448 -0.61345106 -0.35181922 -0.19161598 -0.061224326 0.6227469 0.0027298706 -0.16459872 0.7494355 0.4968857 -0.25522175 0.05905732 -0.035518806 0.44410202 0.16094507 -0.1969399 -0.27119634 0.40884963 0.35867804 0.6535582 0.10339452 -0.328245 0.55111265 -0.042093683 -0.28084096 0.12712878 0.39864385 -0.48778388 0.26125792 -0.039370365 0.15920742 -0.35351703 0.13684401 -0.5660061 0.21509649 -0.6994328 -0.12773047 0.17636295
word 0.764594 0.44083774 0.34902403 -1.1141013 -0.9090958 0.5071268 0.240221 0.13381252 -0.16325599 0.28762993 -0.29762873 -0.16327398 -0.26391175 -0.03863489 0.16554455 0.05872089 0.34409738 -0.5245317 0.6567311 0.20653667 0.10311203 0.017201133 -0.4911416 -0.10291964 -0.15353023 0.60755646 1.2415938 0.5010202 -0.007169073 0.08748976 -0.54254276 0.47142398 0.56258124 -0.09674932 0.30286416 0.7094812 -0.0850241 -0.15685186 0.48269916 -0.4356592 0.13112341 0.33822593 0.30509174 0.5321404 0.37925822 -0.27289373 0.4103564 0.060395468 0.41038233 -0.15734537 -0.82063735 -0.19415958 -0.1547648 0.40377417 0.61194783 0.64635897 -0.65528756 -0.31719097 0.95391774 0.122256294 0.78694046 -0.033448074 -0.32382706 -0.43733534 -0.22266774 -0.58343256 -0.15086858 0.40031862 -0.86062944 -0.12207883 0.61456895 -0.2587342 0.82113755 0.008029634 -0.0877522 0.6453637 1.0058461 0.8125032 0.18675967 0.44207284 0.5581845 0.53956866 -0.28670824 -0.51759714 -0.1995285 -0.35676223 -0.33601275 0.95984995 -0.57018363 -1.3834525 0.8627518 0.1453323 -0.42454097 0.31110153 0.0290212 -0.89983994 -0.5861531 -0.3736763 1.0249346 -0.31158483
now 0.41220766 0.5059143 0.3041132 -1.1180172 -1.0805264 0.29297826 0.15530825 0.3334625 -0.0030264177 0.15847035 0.028491499 0.21552365 -0.3393928 0.06333317 0.46965516 -0.01538704 0.40915927 -0.5686244 0.53637683 0.3850727 0.112416714 0.35752687 -0.40513566 0.017610846 -0.1228844 0.07381835 1.3125656 0.5316251 0.17437342 0.13063718 -0.41860604 0.18816812 0.40596515 -0.10318486 0.43825182 0.42602566 -0.09092522 -0.046065092 0.13750651 -0.27451485 -0.025412275 -0.02340535 0.23549388 0.700286 0.3301591 -0.13826215 0.37756872 -0.2532224 0.103248216 -0.14094141 -0.59646016 0.035308536 0.16743985 0.5391918 0.67756736 0.2177585 -0.51325476 -0.07777533 0.31072634 -0.036479857 0.5388237 0.4394065 -0.014415344 -0.43746874 -0.16994874 -0.11734883 -0.42481536 -0.06806875 -0.6785367 -0.07444928 0.5612904 -0.18518777 0.74752074 0.030485554 -0.24612705 0.71835995 0.69518054 0.5001562 0.23195514 0.40697366 0.21499582 0.5846259 -0.30262667 -0.24099262 -0.14423223 -0.51079994 -0.006134267 0.65950555 -0.26601297 -0.97946864 0.91113096 0.48390335 -0.16194668 0.27407143 0.4401718 -0.54690766 -0.40072915 0.26351354 0.42524624 -0.15427771
some 0.10803933 0.16090985 0.025273455 -0.25554177 0.08091076 0.4335063 0.36407024 0.32935455 0.0145729035 0.02893035 0.1715764 0.1988171 -0.13832927 -0.031326894 0.01584713 0.1204555 -0.7148173 -0.3024049 0.035718836 0.1805753 -0.2879651 -0.12203412 0.10443251 0.6063503 -0.15928519 0.19901764 0.11953864 0.3742323 -0.4073375 -0.081198856 0.19126111 0.05013883 0.20795111 0.15893812 0.50283074 0.30205482 -0.18894573 -0.014458503 -0.22174086 0.3088862 -0.20672877 -0.43604818 -0.41831478 1.105455 0.43973863 0.09600652 0.27891552 -0.1657392 0.39298955 0.49183777 0.77560866 0.27073476 0.20757776 0.45690045 0.45241803 -0.30557856 -0.21420264 -0.19244985 -0.8244091 -0.30911595 0.4594579 0.33983094 0.95898175 -0.11141684 -0.5154939 -0.01773806 -0.3969855 0.48249274 0.08595256 -0.31414255 0.8628094 0.7564188 -0.07886351 -0.05952963 -0.2702595 0.36481482 0.15880133 -0.2605929 -0.3923166 0.4324283 0.18324213 0.55897033 0.45476353 -0.06622759 0.661938 -0.18360281 -0.15807487 0.09589125 0.50560886 -0.45859712 0.18361641 0.16726299 0.18061055 -0.11491962 0.17610332 -0.21571268 0.11203169 -0.32121345 -0.12978543 0.17081623
very 0.035149053 0.23650527 0.12355276 -0.19614145 0.23878695 0.46208566 0.19314757 0.43549404 0.085977085 0.11957393 0.34272894 0.17696862 0.16321084 -0.1906472 0.05091936 0.05148003 -0.80656606 -0.47755596 -0.047342654 0.25909597 -0.23052365 -0.23827611 0.20188203 0.87495136 -0.13265972 0.05637987 0.0790628 0.324568 -0.34534356 0.019739952 0.34528506 0.10201009 0.13022296 -0.12819734 0.5947897 0.20828578 -0.08229981 -0.065072484 -0.20580502 0.59915817 -0.3949514 -0.6616244 -0.27735266 0.94356984 0.36362135 0.056867912 0.15480092 -0.25762618 0.26692992 0.5666022 0.7605571 0.30715072 0.18366529 0.16741505 0.42914918 -0.5722956 -0.05069526 -0.01451533 -0.90412813 -0.41121873 0.4841023 0.16387674 1.1235969 -0.23205765 -0.5348228 0.081263185 -0.2831881 0.5627415 0.19538137 -0.33906087 0.89767915 0.638771 -0.41114762 0.059060678 -0.16210294 0.35506177 -0.1519754 -0.3866472 -0.23165843 0.38082227 0.0909951 0.84299576 0.211292 -0.26941612 0.7208421 -0.047454532 -0.02236114 -0.17485783 0.6047871 -0.41113076 0.20790285 0.0660031 0.13771951 -0.3161439 0.19549967 -0.17311186 0.1488721 -0.48163807 -0.20501588 0.27753332
model 0.20677206 0.3374251 0.28523886 -0.7115217 -0.04470574 0.37402463 0.27048287 0.4430576 -0.034546804 0.18995892 0.016980976 0.2352655 0.08545115 -0.17855018 0.30871353 -0.029533606 -0.2560264 -0.61166245 0.21021926 0.4163766 -0.2160812 -0.034301803 -0.060900185 0.5055878 -0.11471888 -0.0036280283 0.60339063 0.29009345 0.015705712 0.13441534 -0.014035793 -0.1081181 -0.024834722 -0.13184486 0.62649053 0.28101853 -0.16145012 -0.08385353 0.04767476 0.2604125 -0.10487193 -0.12331771 -0.033337984 0.60555655 0.14933324 0.09951745 0.21999243 -0.2526322 0.048468955 0.18956347 -0.0047388677 0.19664608 -0.007863483 0.3331839 0.5491178 -0.21474439 -0.09684846 -0.11977341 -0.21129945 -0.1185381 0.44158915 0.23519288 0.4738584 -0.60642 -0.45711845 0.1547611 -0.15874791 0.27612558 -0.049546055 -0.048759338 0.45613143 0.31143245 0.13997678 0.09519481 -0.1534836 0.49807867 0.117029995 -0.07750629 0.011429611 0.40463468 0.13306394 0.6392216 -0.10260178 -0.4057255 0.2762644 -0.30356845 0.00600304 0.30348963 0.16514757 -0.5269518 0.50119793 0.16295555 0.16172133 -0.23827139 0.35731745 -0.33236638 -0.17054878 -0.5243107 0.07441024 0.18799146
which 0.24187604 0.4302053 0.14599426 -0.55112624 0.2701325 0.30614144 0.21482657 0.40378806 -0.0936134 0.22717397 -0.09411504 0.3079239 0.25132778 -0.3073313 0.06585104 0.17892933 -0.30868483 -0.7071296 0.1884246 0.40506947 -0.14693168 0.049375582 -0.018264096 0.49397093 0.030821765 0.023676941 0.5959289 0.35634443 -0.11587176 0.17251983 -0.072436 -0.0070566963 -0.02841288 -0.025975056 0.6807235 0.33442894 -0.19602162 -0.2305524 -0.010585381 0.28068006 -0.23262769 -0.008442088 -0.052864604 0.7163616 0.065598555 -0.025455683 0.328135 -0.3162644 -0.02603805 0.4134093 0.03283047 0.1468743 -0.19240539 0.2788495 0.5204457 -0.14486541 -0.15555358 -0.16975531 -0.25681967 -0.09961728 0.6287988 0.17022002 0.6770042 -0.44724128 -0.5025286 -0.021345323 -0.14695422 0.37666842 -0.067364424 -0.2520599 0.65252584 0.30696702 0.13837272 0.11718464 -0.18585314 0.62674874 0.24406274 -0.25053418 -0.05776765 0.5842394 0.16082574 0.8019912 -0.028244568 -0.48075712 0.3536992 -0.18081594 0.077169925 0.37853646 0.17957287 -0.8618323 0.50982356 0.22177859 -0.02267948 -0.20989546 0.2591006 -0.26794305 -0.37412682 -0.47262305 0.29026598 0.15573265
like 0.12197248 0.054380234 0.15773727 -0.20996623 0.109626174 0.59260845 0.3489851 0.4979872 0.10678914 -0.02776243 0.43066967 0.11802185 0.061806627 -0.100806825 0.11414516 0.07182612 -0.9612429 -0.3971324 0.10364477 0.10252704 -0.5774106 -0.24480295 0.16614866 0.93530905 -0.2994517 0.33111173 -0.00034902882 0.4966424 -0.50763786 -0.08263615 0.31875655 0.20930223 0.21402965 0.081565656 0.3681987 0.48088148 -0.13630295 0.0039960397 -0.35783076 0.5923153 -0.46841633 -0.7288439 -0.408458 1.101975 0.55624104 0.07941139 0.14610784 -0.10849105 0.5116423 0.46715638 1.0090902 0.44300443 0.27696854 0.28146112 0.59751016 -0.51516724 -0.13804568 -0.082490176 -0.9558917 -0.4698448 0.42647406 0.10758632 0.90364945 -0.19434462 -0.39222202 -0.00082129234 -0.2111291 0.70047486 0.19858636 -0.17293881 0.89184934 0.7446943 -0.57072794 0.016107026 -0.16654177 0.15152928 -0.028883515 -0.37527806 -0.38665825 0.30174053 0.3198854 0.66971064 0.41474393 -0.12340438 0.74322295 0.043724794 -0.24185477 -0.14049363 0.54982406 -0.19497107 0.021382352 -0.001908616 0.15458581 -0.43998823 0.16346791 -0.1970803 0.28523386 -0.6226426 -0.23499209 0.32022464
your 0.008788724 -0.04581666 0.340151 -0.509266 -0.47009087 0.40762547 0.48867685 0.24220547 -0.17284317 0.10458005 0.73297065 -0.027444953 -0.3464129 0.036835738 0.14261347 -0.078631975 -0.51757437 -0.49248898 0.17827159 0.39640903 -0.09682481 -0.036724143 -0.1418129 0.6342117 -0.5685803 0.42237094 0.47827223 0.46038914 -0.020461455 -0.076744854 0.30697244 -0.22351463 0.568404 -0.07120154 0.4016113 0.44040528 0.11277932 0.103548355 -0.11272027 0.059231654 -0.23434098 -0.51150197 -0.23858418 1.0332512 0.7189859 0.04544071 0.2332254 -0.021049188 0.7913783 -0.040541958 0.35849008 0.097790614 0.40120092 0.776503 0.6464558 -0.24060139 -0.31471258 -0.28695738 -0.324757 -0.31033164 0.47553644 0.5402785 0.16741833 -0.89857066 -0.34053117 -0.022204207 -0.27386743 0.3435722 -0.26935235 -0.27235046 0.71329886 0.6116329 0.37622517 -0.12393345 0.09838839 0.40740046 0.33470568 0.21896452 -0.16860023 0.35600024 0.17433688 0.5158702 -0.121531464 0.036206517 0.35506096 -0.41720036 -0.33121324 0.24637018 0.44170383 -0.3018599 0.46415552 -0.01420451 0.37630323 -0.17016743 0.11934357 -0.79885465 0.48352045 -0.4129671 -0.44662523 -0.03723334
that's 0.24872054 0.48158976 0.24402617 -0.7628049 -0.056396205 0.53962994 0.19796947 0.49000943 0.13821563 0.1444703 0.18490238 0.4305646 0.3525441 -0.2661628 0.36261764 0.086964265 -0.19974892 -0.6536279 0.23483588 0.12847841 -0.27624613 0.17476015 -0.019513812 0.7020406 0.03301582 -0.0761969 0.5350416 0.4856792 -0.21002014 0.05578001 -0.052756116 0.21026048 0.07492278 -0.13508242 0.47335428 0.52844924 -0.16441356 -0.21263482 -0.2359956 0.48379144 -0.40588564 -0.38678733 0.06732262 0.8118011 0.13108347 -0.0700316 0.20678851 -0.5229418 0.012548598 0.35140628 0.2042611 0.33970112 0.015565969 0.22756577 0.6253024 -0.32434773 -0.1102778 -0.032341797 -0.39944503 -0.26845875 0.44781262 0.092761025 0.70723885 -0.12571767 -0.26883787 0.08777319 -0.17776126 0.31901297 -0.11446315 -0.06674561 0.70248294 0.18232691 -0.2307362 0.15549444 -0.10310734 0.3818318 0.054309327 -0.19974358 0.023943825 0.37571186 0.1636579 0.8626375 -0.0965552 -0.34504813 0.39978185 -0.019590927 0.10413973 0.042089026 0.036758635 -0.5363633 0.39828932 0.18047048 -0.11278503 -0.24192612 0.40056416 -0.1066734 -0.2321915 -0.27852643 0.17893676 0.20632872
our 0.6910193 0.961235 0.31805745 -1.3327401 -0.937947 -0.0010042571 0.057960566 0.30349842 -0.3360652 0.1655028 -0.42422733 0.45470336 -0.20119753 -0.13126649 0.2362319 0.13625069 0.9686911 -0.83831227 0.6550344 0.68833804 0.67623466 0.6773227 -0.66294795 -0.43611252 -0.051887535 -0.031442218 2.0231423 0.64137053 0.46869132 0.34111795 -0.8656566 0.0066480115 0.29667178 -0.087514415 0.8128068 0.5338886 -0.15013377 -0.1415857 0.35802135 -0.69301075 0.1309248 0.6991038 0.459065 0.5498122 0.054417055 -0.34191832 0.71336067 -0.52873 -0.27163786 -0.20977788 -1.502612 -0.21755688 -0.17100675 0.72103924 0.8459984 0.62137866 -0.5538384 -0.37086132 1.0215158 0.15947618 1.0571954 0.6655088 -0.16887957 -0.70498055 -0.22336416 -0.1819445 -0.35421437 -0.32132125 -1.1002363 -0.2261868 0.48428607 -0.36017877 1.579454 0.099118024 -0.41016686 1.1965959 1.1200709 0.62024015 0.49715307 0.6530049 0.06375638 0.6380702 -0.7116641 -0.5244812 -0.54199445 -0.90081334 0.3264542 1.2578828 -0.60990673 -1.5613903 1.2997501 0.6286587 -0.28056684 0.40340036 0.5232643 -0.90850157 -0.9895373 0.46629804 0.95888484 -0.34184733
right 0.2905705 0.38119638 0.31906483 -0.91360545 -0.9810449 0.4465047 0.07730507 0.2348736 0.24419756 0.12851219 0.31058952 0.21113409 -0.02221858 0.100253664 0.5092777 -0.017744463 0.123230055 -0.63245565 0.49637935 0.16573961 -0.106797755 0.4304394 -0.2397335 0.37780526 -0.009104434 0.041918784 1.0541981 0.58554184 -0.09384223 0.188751 -0.29894605 0.3783323 0.5692574 -0.2749592 0.29394934 0.46380094 -0.15397021 -0.104183406 -0.08877763 0.09558285 -0.43003586 -0.41619098 0.31206316 0.9463459 0.4139015 -0.16623023 0.23461853 -0.16078202 0.2144523 0.007834168 -0.15107663 0.22190852 0.23877305 0.38807184 0.6549994 -0.10358833 -0.34041324 0.10520351 -0.0836194 -0.2841503 0.29772013 0.19288777 0.27826893 -0.09811469 -0.070314914 -0.097609654 -0.3412909 -0.07031742 -0.46018535 -0.06055976 0.6618353 -0.18344156 0.28081995 0.10218612 -0.05354488 0.49902332 0.4322938 0.23402154 0.124912225 0.33108172 0.11696754 0.80075383 -0.22186941 -0.3282211 0.09350169 -0.07495127 0.089658596 0.20843643 -0.22731394 -0.85323584 0.8009277 0.5418549 -0.22886302 0.1682593 0.54854363 -0.29292616 -0.35891375 0.33141163 0.27181995 -0.042680856
kind -0.016437905 0.5108466 -0.014574375 -0.47314128 0.62280095 0.56615067 0.47986686 0.4891285 -0.16540596 0.42355353 -0.28794733 0.3008176 0.3306033 -0.46419474 -0.082526684 0.068510525 -0.8246026 -0.49932915 0.25443083 0.28890148 -0.56935394 -0.43148854 -0.02261651 0.8519965 0.22228774 0.0022036396 0.02416723 0.26530495 -0.4307142 0.0049322774 0.114128955 0.0050176457 -0.23257792 0.09901123 0.41221464 0.052927345 -0.29921833 -0.14822541 -0.20275728 0.5406813 -0.26767698 -0.09755335 -0.4597348 0.68033683 0.15952648 0.055395354 0.03798651 -0.32818398 -0.046697073 0.9604572 0.77512634 0.021275727 -0.18384661 0.15361246 0.14543632 -0.15853341 -0.04368196 -0.38752833 -0.88694113 -0.25005063 0.75343424 0.23132925 1.2460767 0.19755399 -0.69401604 0.09376187 -0.14586176 0.95759946 0.35278627 -0.32434383 0.80853343 0.62771654 -0.40502664 -0.13302937 -0.22075474 -0.047686033 -0.19386888 -0.3729695 -0.20164257 0.3975738 0.28498492 0.5661874 0.74748605 -0.3374421 0.6337043 0.029168779 -0.0010206031 0.07924316 0.3428568 -0.283813 -0.10384308 0.07275865 -0.28021404 -0.34598184 0.15218185 0.32435074 -0.23228505 -0.92882544 0.20150226 0.33803403
we're 0.58789647 1.2766283 0.114629894 -1.1343706 -0.5465379 -0.29422152 -0.082738094 -0.0061698877 -0.32133645 -0.41183656 -0.07704101 0.9124051 -0.0286232 -0.4604414 0.18088655 0.30066675 1.4509495 -0.59599876 0.3377065 0.2366781 1.2408303 1.2131754 -0.59513295 -0.25472865 -0.2643465 -0.5917042 1.9255836 0.7693326 0.3738246 0.02746477 -0.7410394 -0.19407749 0.30464152 0.026478393 0.8507684 1.1027584 -0.081081115 -0.14922087 -0.19750564 -0.71679497 0.1020237 0.64455205 0.32431543 0.6876858 0.120954596 -0.6214162 0.4429888 -1.3316462 -0.47156948 -0.17666258 -1.2438284 0.10554438 0.376624 0.96979564 1.2391983 0.14626782 -0.28535318 -0.5113474 0.9194345 -0.020415844 1.1475351 1.1900429 0.19445305 -0.040467363 0.13171795 0.1559863 -0.5227102 -0.59325725 -1.2860382 -0.25030118 0.6691838 0.004060749 1.6037197 0.21775891 -0.1726849 0.8844674 0.9168798 0.55095625 0.46710512 0.57926226 -0.20408605 0.8071525 -1.0709002 0.118164405 -0.22648263 -1.0197098 0.47771943 1.1009715 -0.5901221 -0.8397281 1.0014342 0.5179044 -0.025227748 0.16411315 0.5095308 -0.7998204 -0.6949943 0.9467044 0.86544096 -0.36623654
not -0.024397384 0.28528994 0.1960438 -0.3216428 -0.07935537 0.29522145 0.14460741 0.3442039 0.049926683 -0.086519845 0.57941186 0.25549984 0.22285616 -0.30599576 0.23048176 0.047568716 -0.52327394 -0.50144035 -7.2819654e-05 0.12935159 -0.1384649 0.17618318 0.08794602 0.88778365 -0.2881347 -0.11587779 0.3734018 0.53682667 -0.24517925 0.072042234 0.27985734 0.080496915 0.3092751 -0.18611713 0.43285224 0.53747916 -0.07730935 -0.028317751 -0.40149057 0.5594729 -0.5726263 -0.7067269 -0.12411942 0.9216626 0.4535195 -0.08765448 0.12232474 -0.4161475 0.24547903 0.3279286 0.65134394 0.38287994 0.44227222 0.39265203 0.71918076 -0.7633897 -0.008722295 0.030696778 -0.8095786 -0.47434568 0.4823971 0.44424647 0.7714438 -0.2775734 -0.21781838 0.22430472 -0.23372306 0.28153005 -0.03869429 -0.28129107 0.8654367 0.55779314 -0.28230113 0.016039385 -0.034931388 0.13287063 -0.06142659 -0.23197523 -0.0936059 0.284346 0.06649113 0.8255902 -0.16820411 0.036102265 0.48140013 -0.06153035 0.08239306 -0.15180573 0.47103882 -0.13021111 0.17944779 0.062148325 0.12838612 -0.50670403 0.21544746 -0.2394611 0.29864413 -0.18384823 -0.3151744 0.24704725
really -0.064218976 0.20309466 0.11298031 -0.25879854 0.103960685 0.37924775 0.25661507 0.4251423 0.0922544 -0.052068695 0.39114237 0.2676921 0.09745685 -0.22200096 0.26040742 0.050886985 -0.73571104 -0.42554277 -0.047382843 0.15892643 -0.3296523 0.07525726 0.16776037 0.88651013 -0.27723593 -0.098064356 0.12628785 0.39171776 -0.31704932 0.047907215 0.32999244 -0.032109868 0.08690528 -0.027378812 0.4632283 0.36573425 -0.15130126 0.023295226 -0.43238333 0.62646264 -0.4287941 -0.66394144 -0.33014917 0.9624422 0.3663925 0.08334613 0.12189354 -0.37412652 0.22396065 0.44055554 0.80061394 0.42631727 0.3411165 0.37407592 0.67235416 -0.749289 0.034048386 -0.03518421 -1.0344139 -0.45662957 0.41164696 0.4276303 0.95306456 -0.25925326 -0.4289317 0.26618546 -0.3187109 0.3745648 0.21195652 -0.22384623 0.8048645 0.7543271 -0.34760487 0.004821009 -0.18476939 0.16817553 -0.092297465 -0.3904144 -0.27139354 0.3463114 0.083121024 0.72613513 0.1659845 0.00977962 0.6019531 -0.086338386 0.023909526 -0.16856386 0.6034148 -0.12162255 0.105115235 0.13484326 0.2760805 -0.46195948 0.24270886 -0.110843815 0.29088673 -0.29878476 -0.41429052 0.35629472
about 0.054594 0.18141627 0.050323337 -0.50074196 0.036771797 0.50864756 0.31177986 0.5041483 0.2339358 -0.07902012 0.51024926 0.47094506 -0.075661376 -0.023332166 0.5953789 0.15455897 -0.7502017 -0.42506072 -0.12023766 0.10505849 -0.5107056 0.13344792 0.2806979 0.9429403 -0.20360109 -0.18998472 0.12233023 0.3613738 -0.50170213 -0.10059893 0.46145323 0.05908829 -0.06357698 0.1759327 0.49666688 0.3697612 -0.19083773 -0.028242022 -0.61139816 0.7773674 -0.34922484 -0.7802304 -0.45984352 1.1896701 0.3060435 0.26675332 0.12421323 -0.6021549 0.14636692 0.41401637 0.9260442 0.663761 0.4047305 0.3567108 0.75046736 -0.9412869 0.112517186 0.17311208 -1.2931575 -0.55760527 0.14042729 0.42838466 1.1303031 -0.19386041 -0.50802857 0.334823 -0.5193734 0.22523099 0.37021178 -0.13907515 0.8552158 0.9408904 -0.49464133 0.09213459 -0.35068592 0.26851538 -0.15708856 -0.5245409 -0.47221798 0.4555496 0.040819608 0.8346946 0.28626502 0.057062495 0.8891619 -0.043366898 0.014121636 -0.23675291 0.5924773 0.023197217 0.08889357 0.20156078 0.4317648 -0.42416927 0.48011738 0.04808227 0.39994222 -0.12710181 -0.60476 0.5125329
was 0.23278405 0.3290167 0.29281962 -0.81724507 0.29868755 0.78566444 0.24446656 0.6274592 0.29641172 0.32911217 0.05670518 0.47662252 0.6396248 -0.23812936 0.40377146 0.024406428 -0.6374425 -0.81807166 0.10536879 0.102732934 -0.82374185 -0.04327732 0.18333451 0.9443245 0.21739589 -0.12380439 0.27938598 0.31765887 -0.30398902 0.17163871 0.091770835 0.268546 -0.1212685 -0.19771183 0.6851402 0.42434594 -0.33935443 -0.28902608 -0.18154572 0.8723671 -0.4776422 -0.43271673 0.10049973 1.0352927 -0.10333881 0.14063662 0.23970552 -0.37316585 -0.10699738 0.47631502 0.5600405 0.48154598 -0.21442942 0.00034626038 0.58019674 -0.479902 0.050366834 0.15312788 -0.7400451 -0.19178082 0.29155877 -0.26258013 1.0093895 -0.24052277 -0.49560073 0.25373292 -0.024688264 0.48447022 0.32276285 0.12006321 0.6772484 0.35817683 -0.67125934 0.22528744 -0.19130833 0.3625858 -0.2650601 -0.5217116 -0.15042183 0.5095428 0.21347392 0.9339447 0.20899379 -0.702634 0.5404765 0.17211482 0.21759537 -0.13375317 0.14073493 -0.5713624 0.34389535 0.10751963 0.04624824 -0.38855353 0.58454883 0.011668805 -0.27067277 -0.762189 0.052217912 0.44735476
from 0.35201555 0.3312818 0.28831637 -0.87696177 -0.2698146 0.49666625 0.17987908 0.4491238 -0.004304409 0.24534331 0.06870789 0.29292563 0.081923 -0.06351221 0.2843861 0.07724463 0.04318068 -0.67515707 0.3074742 0.3194025 -0.16810048 0.089986734 -0.09012255 0.31516477 -0.008640989 0.20308769 0.82430995 0.4330053 0.005779765 0.06908528 -0.19040945 0.13233389 0.21636184 -0.098689385 0.65413284 0.5652093 -0.14568594 -0.23690386 0.07727567 0.024429036 -0.15646896 -0.10126004 0.12999558 0.829326 0.16203715 -0.022452978 0.3791555 -0.19033678 0.19523025 0.13446964 -0.22151752 0.1787481 -0.06172948 0.3166844 0.5653696 0.047721367 -0.35824507 -0.058063783 0.047357183 -0.04309667 0.42581517 0.115455635 0.30013564 -0.52568686 -0.2789148 -0.11398372 -0.18343398 0.25033948 -0.3015191 -0.011182749 0.57858855 0.06457024 0.30146614 0.17718789 -0.11842176 0.7470409 0.3649848 0.08958643 0.010953683 0.51836306 0.2809916 0.7719609 -0.20013735 -0.5175379 0.20404261 -0.24354549 -0.0085883215 0.47909996 -0.103485994 -0.89931095 0.7023711 0.23349278 -0.03065697 -0.029100426 0.43368644 -0.5133482 -0.32901537 -0.3000896 0.3177168 0.038857188
an 0.07967102 0.39901468 0.22689421 -0.65217674 -0.09934924 0.28595877 0.29958162 0.43750274 -0.18436643 0.18296503 0.14066634 0.28008047 0.089667395 -0.30625758 0.15486377 0.0780346 -0.20005646 -0.6880223 0.29600704 0.39128795 -0.09947024 0.20020351 -0.16624673 0.48327345 -0.22617838 0.04957614 0.6969619 0.510249 0.003324678 0.1623962 -0.05297919 -0.13565457 0.12144528 -0.027455136 0.5278705 0.42834106 -0.05367374 -0.05940321 -0.10287548 0.20017284 -0.28544554 -0.16939282 -0.040996622 0.7300107 0.22653392 -0.102307856 0.26916787 -0.4065313 0.16789664 0.2079926 -0.008112345 0.08759662 0.0006676516 0.52369606 0.6761561 -0.12065695 -0.24017657 -0.30475935 -0.18897165 -0.2247747 0.725735 0.45629337 0.38885683 -0.6431741 -0.40709835 0.086307146 -0.14504878 0.3569787 -0.22605795 -0.2150219 0.6479436 0.31067875 0.26609248 -0.01638376 -0.117843166 0.46529356 0.32606915 -0.01132765 0.016726218 0.43263 0.1725936 0.69491225 -0.25485656 -0.26376545 0.13166845 -0.2924213 -0.0035449704 0.35114643 0.16943687 -0.6280791 0.4789419 0.15344334 -0.018543528 -0.24761952 0.21833438 -0.41261688 -0.10585723 -0.38173342 0.06368173 0.046359885
they 0.33813426 0.055835016 0.17276856 -0.19741498 0.1506255 0.72378916 0.38667154 0.49035326 0.19403219 -0.059389204 0.26036277 0.14491978 0.004220645 0.05157581 -0.012220814 0.05821266 -1.0445521 -0.3952582 -0.0114958035 0.14176568 -0.50296813 -0.22060114 0.23456728 0.7991982 -0.21480887 0.2749174 -0.03183182 0.41359004 -0.5472533 -0.11414507 0.34219718 0.18202585 0.35232118 0.08365783 0.57373476 0.46365684 -0.24060018 -0.020092662 -0.18907374 0.5283018 -0.4220094 -0.52718556 -0.2941386 1.2846605 0.4856421 0.15688288 0.3873354 -0.005683498 0.47126466 0.48344898 1.0279249 0.42220935 0.21370496 0.2982586 0.54641896 -0.416299 -0.11729664 -0.0260812 -0.94865066 -0.3675303 0.38134432 -0.0671014 1.0858332 -0.15425459 -0.5139502 -0.03295467 -0.23675145 0.4625052 0.23105352 -0.21448982 0.9227709 0.8875027 -0.42453676 0.028043417 -0.3093038 0.4077908 0.010756349 -0.3839159 -0.35904145 0.3453569 0.18653359 0.5419944 0.507548 -0.22944742 0.69227284 -0.038687404 -0.1676349 -0.0691003 0.6173192 -0.46178332 0.1266221 0.09868195 0.3812038 -0.19942681 0.22037922 -0.27038902 0.065061726 -0.4946403 -0.18858565 0.40860882
get -0.003433105 0.03214996 0.05692711 -0.40100354 -0.34180757 0.34241784 0.26014373 0.38289303 -0.042831004 0.004765836 0.33657166 0.15060969 -0.3406237 -0.015253145 0.26971024 -0.033850543 -0.42191646 -0.14224856 0.079390414 0.17127205 -0.2368634 -0.109748155 -0.03887512 0.52667063 -0.47772467 0.24561524 0.2175371 0.36864978 -0.18428768 -0.13885425 0.22092944 0.100986436 0.2827771 0.09124603 0.33309975 0.46823624 0.016077463 0.032062374 -0.19586441 0.13493171 -0.06669372 -0.5600014 -0.27672318 0.93774414 0.5350256 0.13558784 0.15805694 -0.21978725 0.46640944 0.14901014 0.5336771 0.2861418 0.42334667 0.5218851 0.65004617 -0.3341426 -0.27085257 -0.17877486 -0.5886185 -0.31040928 0.3879868 0.6104099 0.4034439 -0.39495254 -0.22225522 -0.009136316 -0.41294724 0.39341694 -0.09935249 -0.1530466 0.6786813 0.5246199 0.18251435 -0.17290418 -0.121137336 0.23775452 0.195824 0.1388269 -0.21543351 0.31944892 0.33220008 0.564693 0.17465982 0.16705793 0.42930686 -0.33065197 -0.270531 0.19266517 0.42247406 -0.14175804 0.30406207 0.013528683 0.1846529 -0.15692182 0.131478 -0.48063463 0.38994557 -0.2710647 -0.2793233 0.10749082
out -0.054795727 0.120870374 0.0072714537 -0.29957977 -0.12351177 0.36354077 0.23638777 0.39815566 -0.005747048 -0.1256247 0.33004493 0.29689273 0.00046639866 -0.18807536 0.21127807 -0.02366347 -0.6297027 -0.33048445 -0.0097599905 0.130713 -0.34122324 0.08632956 0.09705456 0.82329494 -0.41807565 0.034495972 0.1375925 0.45786285 -0.31796858 -0.13048413 0.29574314 0.07396341 0.22217892 0.03571895 0.43703213 0.5450883 -0.19216451 0.020877024 -0.41582814 0.44600737 -0.40074742 -0.5483838 -0.29945698 1.1281261 0.39912838 0.11332317 0.18213801 -0.30613175 0.40998673 0.30766776 0.7470469 0.35797048 0.42377508 0.5103059 0.7736218 -0.61572367 -0.09689981 -0.17313397 -0.9267036 -0.47740012 0.49473408 0.5624752 0.7876725 -0.3161488 -0.3055482 0.18355738 -0.34406844 0.45759374 0.013904528 -0.22276418 0.8823542 0.8578983 -0.06881981 -0.20391192 -0.20248899 0.14313418 0.02748378 -0.07207532 -0.2685919 0.33283338 0.22616121 0.63323146 0.18682602 0.1490113 0.4903069 -0.22905158 -0.10617784 -0.032455627 0.53074354 -0.11900089 0.17515314 0.048492946 0.21776758 -0.36531258 0.12105222 -0.3379522 0.4350556 -0.37148622 -0.41932085 0.30677408
time -0.15483744 0.031957053 0.6968133 -1.5422534 -0.7740398 0.5360643 0.4298294 0.0805355 -0.23432882 0.80805105 0.101326026 -0.18654123 -0.20342332 -0.19308242 0.25872403 0.060336817 0.43666324 -0.7448191 0.5103991 0.43996653 -0.19000293 -0.010261303 -0.5229349 0.026268674 0.033772394 0.021824239 1.2885578 0.36568287 0.3752018 0.16926879 -0.19839492 -0.0833269 0.5729705 -0.33748773 0.5951647 0.20777293 0.16648163 -0.05587545 0.3906512 -0.2589123 0.18856007 -0.035801835 0.19530436 0.50456095 0.23919311 -0.3714687 0.06393668 -0.037080478 0.5341602 -0.19032541 -0.6749451 -0.21332838 -0.087682754 0.71989757 0.27668947 0.5763573 -0.7034669 -0.31743267 0.70467806 0.14366879 0.41362718 0.39778858 -0.34952623 -0.99204326 -0.630019 -0.11393043 0.026114892 0.3269367 -0.543905 -0.15795259 0.5395637 -0.23360276 0.81740767 -0.0018384325 0.21375747 0.62069905 0.6016889 0.8322956 0.13306893 0.3940612 0.40912947 0.7601262 -0.5850778 -0.3679273 -0.022963865 -0.29384062 -0.33641303 0.8169233 -0.47602364 -1.3292992 0.86936265 0.122448444 -0.2146189 0.05698728 0.26582626 -0.5116187 -0.012333703 -0.5476768 0.49813348 -0.52879876
words 0.47789353 0.21772687 0.15825027 -0.51307833 -0.22993769 0.5951412 0.37469885 0.1818445 -0.070937626 0.2530992 -0.14283207 -0.1385716 -0.14172018 0.056285534 -0.13132685 0.06516906 -0.42350122 -0.3747002 0.37592682 0.18918727 -0.23578255 -0.37875164 -0.118310116 0.27329162 0.040869314 0.5620259 0.47291648 0.36310095 -0.29370564 -0.05766576 -0.15274227 0.37738737 0.4220864 0.008100092 0.3924199 0.38690504 -0.17331846 -0.14895378 0.27239215 -0.07893108 -0.057734504 0.021481618 -0.072636604 0.8215606 0.47013766 -0.06862827 0.27341917 0.22317253 0.4788006 0.34419128 0.19619934 -0.08880513 -0.083253704 0.23766832 0.22566234 0.33163932 -0.46065888 -0.236833 -0.0093417335 -0.00020625646 0.54202336 -0.122840114 0.48301536 -0.038779903 -0.41148564 -0.44442183 -0.17662919 0.65362376 -0.24965006 -0.21022005 0.73213744 0.20959666 0.19409464 -0.05363197 -0.10128541 0.445134 0.47439146 0.21801333 -0.117320314 0.4083248 0.41812664 0.44995314 0.45764062 -0.40702802 0.3759693 -0.11606769 -0.29959938 0.4609125 0.00885264 -0.9650822 0.4622465 0.11479921 -0.2471873 0.1747724 0.04281979 -0.4385228 -0.3489959 -0.5985501 0.57757723 -0.023797577
also 0.17334749 0.23922017 0.17746365 -0.49256015 -0.1798781 0.44608703 0.2523227 0.45085075 -0.006261461 0.03417655 0.2810774 0.196858 -0.05096854 -0.12121223 0.1936761 0.055260636 -0.5091764 -0.46226054 0.10055788 0.23840788 -0.17374556 0.019997705 0.033567403 0.63140744 -0.28534096 0.1001864 0.40127113 0.452329 -0.23971061 -0.0036309017 0.1823203 0.07422577 0.2754258 -0.02734496 0.51041704 0.40718466 -0.08236706 0.014738197 -0.15424663 0.2970267 -0.29110053 -0.4484854 -0.18937941 0.9416651 0.38776797 0.022957219 0.27165246 -0.24514036 0.34068465 0.26800263 0.46535292 0.304701 0.24831294 0.41546354 0.60856503 -0.3544664 -0.22191261 -0.08389752 -0.5706602 -0.32231882 0.47583136 0.3327064 0.66172904 -0.3650258 -0.38110933 0.046725392 -0.29055583 0.335452 -0.05526354 -0.25025466 0.76640314 0.54845583 -0.013285742 -0.007880997 -0.21005388 0.36507553 0.16665515 -0.08960399 -0.17033413 0.38097557 0.15675369 0.63690245 0.055778697 -0.0962641 0.41160458 -0.22052313 -0.08559636 0.12808022 0.37576866 -0.42842612 0.309714 0.13621333 0.1698577 -0.19797058 0.18422127 -0.34223887 0.13042633 -0.28193533 -0.14463815 0.18166964
how 0.04913619 0.2612489 0.07038128 -0.44005463 -0.76126766 0.11433456 0.25294888 0.29194406 0.00072566135 -0.33691588 0.25107545 0.24159318 -0.49488702 0.007414028 0.4387717 -0.053203292 -0.2687886 -0.19429103 0.25260204 0.25505123 -0.008167465 0.42569372 -0.1278816 0.4680507 -0.614617 -0.12398216 0.62934196 0.59879357 -0.1602331 -0.060683265 0.113588 -0.071017765 0.3146467 0.19564901 0.27783993 0.54670495 -0.17527123 0.19936274 -0.37487286 0.04963817 -0.19233768 -0.41972145 -0.24734025 1.0328454 0.63436913 0.034762718 0.17783138 -0.3981777 0.27194643 -0.0020383038 0.3643544 0.3034687 0.7227531 0.82435894 0.9371264 -0.5315082 -0.16115972 -0.16760804 -0.69004345 -0.42868018 0.47595245 0.8992001 0.38111234 -0.2562297 -0.22689618 0.13239713 -0.5912459 0.02144618 -0.30718482 -0.21020816 0.7392683 0.7153374 0.41001466 -0.24409088 -0.33400413 0.20017435 0.44239146 0.19582878 -0.14855455 0.31170627 0.16391285 0.43656567 0.01137771 0.4419267 0.26092377 -0.55311745 -0.08991499 0.30055997 0.4380996 -0.17106727 0.34788898 0.3044086 0.3061371 -0.16501422 0.1295503 -0.4633131 0.3492433 0.20934814 -0.36636338 0.12870638
going 0.05849744 1.201268 -0.107796974 -0.5299834 -0.25407803 -0.65997916 -0.3628702 -0.22588272 -0.5123923 -0.4106981 -0.2768039 0.63565737 0.13763256 -0.5649288 -0.07546309 0.40499416 1.2367321 -0.37374067 0.16203587 0.34614712 1.2961879 1.0632173 -0.48518252 -0.22897409 -0.11988043 -0.5876849 1.8167745 0.76618165 0.45448697 0.3327633 -0.78638256 -0.12515481 0.16623814 0.048157986 0.7235237 0.9886764 -0.2693584 -0.20274597 -0.42918 -0.6704044 -0.104590744 0.55501485 0.08440138 0.48262897 0.31984016 -0.53813195 0.26535046 -1.0426841 -0.5334596 0.039531697 -1.2108024 -0.11680145 0.36562613 0.96783733 0.99855185 -0.1598503 -0.14531061 -0.4648551 0.45047748 0.0058233873 1.1016728 1.3900218 0.29813606 -0.1714009 0.060822144 0.26361844 -0.50348437 -0.35088667 -1.1766509 -0.5194981 0.8619111 0.12465289 1.4691437 -0.0014942322 -0.122520685 0.77469975 0.73417974 0.43478882 0.48085812 0.6249706 -0.12241651 0.87546045 -0.96153396 0.17645894 -0.16559426 -0.7891709 0.5944487 0.9847646 -0.20243576 -0.8378375 0.91141343 0.5460499 -0.31010577 -0.17852768 0.34253055 -0.44447404 -0.47919935 0.99082005 0.8350538 -0.32433352
there 0.28456852 0.13104998 -0.0010517541 -0.074589215 0.19821344 0.6775528 0.2774641 0.25858647 0.33361003 -0.047165938 0.11336598 0.10077737 0.099596314 0.12430588 -0.018122781 0.15404929 -1.0955565 -0.25867978 -0.07614664 -0.04836821 -0.54692715 -0.35341093 0.26379043 0.8554363 0.08062185 0.2659807 -0.14961863 0.34508115 -0.68793553 -0.09230579 0.29223293 0.5010328 0.34627628 0.03326479 0.40199313 0.3668822 -0.39300075 -0.15852235 -0.27622485 0.6241787 -0.43342897 -0.623967 -0.27141455 1.3579843 0.53229356 0.17706557 0.2227079 0.1082473 0.3475332 0.72772247 1.2528474 0.41024065 0.20082217 0.11064261 0.290482 -0.5310116 -0.08133906 0.17307167 -1.2139763 -0.28368196 0.16679086 -0.23622836 1.378521 0.3454869 -0.47166705 -0.11813961 -0.39008486 0.5749003 0.21537897 -0.2747316 1.0031942 0.68726665 -0.6314162 0.014839205 -0.24577849 0.30099857 -0.06231599 -0.42531517 -0.4299057 0.36111996 0.25488368 0.6383789 0.8665478 -0.20478806 0.92211825 0.29504105 -0.17474385 -0.21861807 0.56396085 -0.54283667 0.058083266 0.24703524 0.053753413 -0.112650216 0.21071579 0.0049422 -0.07426712 -0.30743358 -0.005596577 0.4118672
different 0.29409125 0.11277749 -0.022910785 -0.31179062 0.15191606 0.66018707 0.3987819 0.29110304 0.051518682 0.31063423 -0.058224346 -0.010679452 -0.15512322 0.096013226 -0.14087068 0.105677046 -0.81654185 -0.24048287 0.080678634 0.16669604 -0.42285502 -0.57215405 0.15505117 0.5179866 0.035229992 0.4799267 -0.03247859 0.21790443 -0.51941437 -0.20648326 0.14952871 0.3111816 0.25728646 0.12779813 0.5551016 0.13420832 -0.16909894 -0.090306774 0.038808223 0.21536164 -0.06901252 -0.31816787 -0.3602409 1.1605705 0.49869904 0.13066053 0.23014551 0.11238225 0.53386676 0.5982556 0.82244265 0.16999774 -0.0048770322 0.20146407 0.16049458 -0.0081082815 -0.33584073 -0.16796231 -0.6962435 -0.20140284 0.47696245 -0.03666317 1.0692015 0.013525624 -0.7191375 -0.36470672 -0.3557619 0.82059693 0.1071155 -0.32366318 0.96325904 0.605082 -0.13096938 -0.03097437 -0.24052115 0.4698712 0.21819712 -0.18131883 -0.40570316 0.49627775 0.36615932 0.6651429 0.8107395 -0.3723618 0.80388886 -0.07920659 -0.38472292 0.15299606 0.37820178 -0.8200305 0.33820912 0.13334146 -0.023309018 0.105295345 0.099143796 -0.22147271 -0.113381974 -0.6813756 0.25869742 0.13570698
more -0.055670407 0.01679571 -0.009943686 -0.21399091 0.30724323 0.58853173 0.29654357 0.56251997 0.11629061 0.053965583 0.52040297 0.2638413 -0.13034926 -0.09337099 0.26255703 0.15672053 -0.9860324 -0.33281946 -0.1845076 0.17368804 -0.38173288 -0.19375205 0.33892924 1.0195016 -0.31181318 0.09862823 -0.23201631 0.2881383 -0.62066865 -0.19881617 0.57487446 -0.0015912654 0.07014379 0.18907973 0.45443368 0.24230857 -0.07537833 0.09199436 -0.45201787 0.6488113 -0.28358385 -0.8371554 -0.6088097 1.1673179 0.40163186 0.26674438 0.08624019 -0.33393553 0.4794901 0.5812039 1.2245663 0.56190234 0.3726084 0.3141058 0.48764616 -0.75304353 -0.07177407 -0.013143516 -1.3361553 -0.598615 0.2803109 0.30566213 1.1838117 -0.21242619 -0.5695562 0.091397986 -0.4873934 0.50401926 0.4237964 -0.3887048 0.92208326 1.0280187 -0.52385885 -0.0278374 -0.3172759 0.19164337 -0.15132965 -0.5427236 -0.5562301 0.39026278 0.07470488 0.71912265 0.44915256 0.098673716 0.87919354 -0.019767832 -0.2148385 -0.2748599 0.81791854 -0.048814714 -0.10596846 0.10828532 0.3702412 -0.34563708 0.15792164 -0.018102176 0.5290586 -0.34337187 -0.6347488 0.45807981
well 0.11076196 0.23564088 0.16498366 -0.49419057 -0.58489835 0.32580736 0.32371324 0.4592588 0.13353379 -0.23604734 0.45651847 0.27642238 -0.2437258 -0.09062395 0.4689384 -0.036258332 -0.46546116 -0.37351194 0.17935033 0.1258959 -0.20999794 0.37045714 -0.058543954 0.6963878 -0.54271334 -0.06055569 0.45396462 0.61928624 -0.25716764 -0.04115567 0.2014013 0.045743193 0.33657625 0.0849086 0.2457052 0.56885004 -0.12349858 0.13986956 -0.42084962 0.36353818 -0.39575836 -0.5824669 -0.14155944 1.0375026 0.52541286 0.08150451 0.20538768 -0.40893292 0.35055935 0.04817515 0.5840186 0.399437 0.5263808 0.62749094 0.95286024 -0.5848536 -0.057639424 -0.10518689 -0.6963543 -0.5058032 0.43409774 0.5544507 0.49761182 -0.32039797 -0.20518667 0.20360726 -0.40292677 0.08593452 -0.17419712 -0.1279502 0.80610245 0.7212257 0.035660025 -0.18375398 -0.29514152 0.13137671 0.2605381 0.013625308 -0.15979038 0.24163379 0.1348541 0.4682263 -0.07617271 0.27738127 0.2631094 -0.29647386 -0.08677808 0.02935671 0.4260295 -0.1216794 0.23307644 0.14561538 0.27742994 -0.2522524 0.15934397 -0.40694457 0.36731365 0.014072905 -0.39421156 0.24600735
will 0.069795564 0.24147375 0.25201237 -0.5818042 -0.40857846 0.28315702 0.14009851 0.39809677 -0.14528194 0.01866905 0.3827057 0.18972957 -0.20856053 0.058726195 0.22974248 0.045337856 -0.052234374 -0.50035405 0.12720798 0.37619665 0.101422116 0.18175086 -0.059308663 0.33075452 -0.3621753 0.14354804 0.70280683 0.50657535 0.0048458474 -0.041665073 0.08588727 -0.008763928 0.2977895 0.015588408 0.529325 0.49204576 -0.017069057 0.008838561 -0.20546716 -0.036979415 -0.19587378 -0.28708553 -0.16239405 0.8120583 0.3980149 -0.0133895185 0.24144886 -0.21500485 0.41941077 0.029906645 -0.027786609 0.17368937 0.3763855 0.5369073 0.5942545 -0.23729637 -0.28991008 -0.09226804 -0.25596744 -0.2343981 0.40827096 0.52430505 0.24961984 -0.6337259 -0.260568 -0.012469283 -0.33066374 0.13089533 -0.30548 -0.26104993 0.6700586 0.46893668 0.4676838 0.010408055 -0.19319572 0.53234166 0.34007433 0.16938446 -0.14660159 0.3921033 0.13074884 0.56205565 -0.27667582 -0.0014105324 0.25579268 -0.42788824 -0.09920986 0.30686584 0.24466306 -0.45818487 0.46418262 0.17272782 0.21520029 -0.14497328 0.23957323 -0.58457875 0.2869488 0.02056171 -0.18222725 -0.018032735
where 0.23422049 0.34500468 0.15591365 -0.60214996 -0.053110614 0.40758604 0.2526855 0.45245352 -0.034282327 0.21651188 -0.050132018 0.20916222 -0.020848518 -0.14231339 0.16337302 0.09972356 -0.2974378 -0.5347468 0.23748986 0.3570831 -0.21059224 -0.08597292 -0.055080272 0.40798667 -0.089011244 0.18378149 0.5862133 0.37511528 -0.098789155 0.0634958 -0.08691501 0.044684794 0.06463223 -2.783908e-05 0.62726754 0.31316558 -0.1578943 -0.100152515 0.0030979908 0.12875372 -0.10176491 -0.16442233 -0.13061266 0.78664255 0.24433263 0.047320124 0.30288604 -0.17874229 0.18839264 0.32895517 0.08679583 0.1644709 -0.023303008 0.33444697 0.54278594 -0.08966453 -0.28121585 -0.19427809 -0.26897413 -0.09635119 0.5701344 0.26474386 0.58677244 -0.45911583 -0.4763958 -0.069757305 -0.2847673 0.43104753 -0.12732181 -0.14711039 0.67680174 0.3307432 0.216962 0.044051807 -0.2715217 0.5982522 0.34307095 -0.07836037 -0.095078066 0.5109071 0.2533626 0.6951341 0.121093564 -0.3897686 0.34907404 -0.28242064 -0.07224089 0.4001625 0.17798343 -0.78197336 0.55109423 0.2393116 -0.01654074 -0.106366396 0.28001297 -0.38723987 -0.23465887 -0.43876314 0.22209047 0.09675439
you're 0.11628514 0.29821748 0.30615938 -0.747916 -0.17279811 0.45585552 0.36442456 0.26315638 -0.068990774 0.05625667 0.4591931 0.2885655 0.06951705 -0.26399052 0.1824627 0.08090699 -0.090787016 -0.5564455 0.20303546 0.13703041 -0.07320439 0.20158002 -0.1644691 0.620149 -0.35307097 0.11482466 0.6663924 0.5283886 -0.116157934 -0.07234084 0.0360436 -0.057289112 0.35378167 -0.07747606 0.48538768 0.7026079 0.016496718 -0.041888878 -0.24460125 0.20447141 -0.2758447 -0.35283497 -0.05364942 0.94804263 0.43360373 -0.11787485 0.14874506 -0.49818376 0.39861783 0.12484918 0.20923877 0.21280833 0.24950968 0.622294 0.7959364 -0.21139178 -0.2534398 -0.31294623 -0.12581606 -0.26324126 0.62757856 0.46957773 0.44891858 -0.4566959 -0.2157833 0.096383594 -0.19445316 0.34534386 -0.3258074 -0.096429415 0.7808194 0.44188038 0.23232284 0.059684306 0.08515346 0.399817 0.27241313 0.14321823 -0.0062376102 0.34608573 0.1930508 0.7658833 -0.26645342 -0.03627221 0.34563434 -0.3003012 -0.12582825 0.23171854 0.0882728 -0.38673767 0.45774806 0.040779963 0.15593688 -0.2410718 0.2553357 -0.54272634 0.09243125 -0.3786845 0.0121548725 0.021569058
by 0.35656953 0.45565447 0.23672415 -0.7679021 0.010403314 0.44920003 0.22801067 0.41620073 -0.1002356 0.20165686 -0.023162223 0.32650244 0.24668558 -0.25281048 0.089500256 0.16731784 -0.13758901 -0.74334455 0.31914976 0.32542625 -0.12757488 0.10646499 -0.09846313 0.4379533 -0.025463508 0.12420807 0.81264496 0.5434409 -0.09236183 0.12847508 -0.21639301 0.12707758 0.16460317 -0.08074196 0.70420134 0.5920486 -0.21124233 -0.21505971 -0.0008569081 0.13500708 -0.2632801 -0.04752151 0.057112314 0.8860325 0.1645067 -0.12724678 0.39570946 -0.31146532 0.103421256 0.31248787 -0.095523074 0.16404842 -0.113937914 0.35307112 0.63066024 -0.007864471 -0.29807034 -0.1987153 -0.071341425 -0.10732149 0.6981278 0.12976567 0.5600295 -0.43644267 -0.39717475 -0.10276795 -0.124180935 0.4147147 -0.28424317 -0.17634417 0.7460027 0.23711309 0.22591174 0.14718595 -0.16996859 0.714015 0.35664555 -0.051038153 -0.012371352 0.5574347 0.26401174 0.83344674 -0.122795776 -0.5414108 0.25565577 -0.2353233 0.051524192 0.46097323 0.0008426232 -1.0058898 0.6134733 0.25550044 -0.10404193 -0.14295818 0.3431041 -0.45346823 -0.41034937 -0.42778316 0.42775053 0.07596195
things 0.11977029 0.049737792 0.0043150764 -0.1047196 0.03835175 0.6057501 0.3780412 0.40721837 0.18719251 -0.12751806 0.3046933 0.084358595 -0.1427838 0.03593332 0.04154282 0.096971065 -1.0145314 -0.17746775 0.0011846839 -0.023126822 -0.5289625 -0.25477898 0.18879002 0.83759576 -0.30762324 0.2794853 -0.14663205 0.42457008 -0.6192331 -0.19068244 0.37367988 0.26281214 0.3097146 0.19621196 0.28572044 0.4468145 -0.21646924 0.05719118 -0.37844852 0.49061677 -0.39266935 -0.70000017 -0.47708243 1.2636001 0.65037227 0.1715374 0.15392229 -0.087161236 0.52681756 0.59854305 1.2428594 0.4340482 0.42378604 0.32082662 0.55383486 -0.5786873 -0.1326808 -0.068185404 -1.1593899 -0.4537802 0.32273617 0.18677212 1.1313968 0.11518186 -0.39291736 -0.016004786 -0.40426883 0.6269291 0.21016878 -0.23231314 0.97379416 0.88470376 -0.4709322 -0.13054785 -0.2842111 0.10219564 0.005583564 -0.3092749 -0.44472107 0.28616977 0.28715914 0.5280579 0.6982655 0.089825876 0.81074464 0.0047922726 -0.2805589 -0.1738355 0.675256 -0.16654982 -0.074947044 0.11430846 0.18780059 -0.2784743 0.1287349 -0.111579455 0.30593103 -0.37428623 -0.2622356 0.3781369
vector 0.6633104 0.6234673 0.3721795 -1.3089772 -0.8679587 0.34441286 0.20090115 0.31031856 -0.24396075 0.33619502 -0.3561046 0.103527196 -0.1424583 -0.15169095 0.23595424 0.1109633 0.6878849 -0.7409037 0.7196816 0.39531133 0.26152444 0.22249673 -0.57180476 -0.2661979 -0.10077101 0.2963466 1.5500548 0.5687828 0.22157118 0.15891604 -0.68896836 0.27718365 0.35406455 -0.14514765 0.49815905 0.54221004 -0.085395 -0.15257512 0.45246613 -0.47439554 0.13855629 0.46169114 0.41759533 0.41472816 0.08067253 -0.31095195 0.43893328 -0.20218424 0.10889735 -0.15580623 -1.1395738 -0.22103868 -0.24256311 0.4360986 0.6122749 0.6714658 -0.6765174 -0.33409566 1.0359417 0.14809813 0.85051274 0.17186895 -0.30719766 -0.5892692 -0.2356543 -0.40879008 -0.15462036 0.18114147 -0.92526156 -0.11452455 0.4819857 -0.43249437 1.0303348 0.09193893 -0.1778908 0.90787655 0.96342874 0.7284857 0.3651556 0.45901126 0.38659766 0.6006149 -0.5225415 -0.56113976 -0.3732271 -0.5059039 -0.13218525 0.99192774 -0.6467622 -1.4711972 1.0277368 0.38664424 -0.4788862 0.3166585 0.22960469 -0.79211265 -0.74102896 -0.14079867 1.0115712 -0.31993854
say 0.082491964 0.20972925 0.096295774 -0.579407 -0.73246425 0.22360405 0.19456525 0.29541716 0.018813401 -0.1491598 0.4194128 0.17553212 -0.4309364 -0.11404255 0.5263874 0.038009737 -0.21122447 -0.2803098 0.28628737 0.07695376 -0.10216492 0.3646666 -0.18603496 0.49295163 -0.50068116 0.020123832 0.6073193 0.49170843 -0.19244406 -0.023938257 0.06919751 0.12277732 0.33422613 0.11518559 0.14121297 0.4782654 -0.042535767 0.16164748 -0.33357996 0.1648847 -0.18280971 -0.5275049 -0.18930545 0.8084766 0.50980115 -0.033442225 0.08725974 -0.39470586 0.30021065 0.035442814 0.32179785 0.29196686 0.56144285 0.5714652 0.8348434 -0.4480247 -0.25640723 -0.099033386 -0.5022107 -0.45755053 0.4553635 0.67094725 0.24726239 -0.2674498 -0.12589908 0.080160275 -0.49397916 0.10622627 -0.23902564 -0.1742026 0.67976034 0.4243426 0.20529978 -0.11324225 -0.22845988 0.14807902 0.41407928 0.13974464 -0.123520195 0.28384572 0.16199063 0.5659837 -0.058411766 0.32187152 0.20210478 -0.31116763 -0.13399212 0.13343975 0.2736419 -0.1436378 0.35170797 0.2711135 0.123545 -0.13094851 0.15252711 -0.35163534 0.33401284 0.17039685 -0.28830016 0.10884582
we'll 0.41084737 0.40094316 0.22154939 -0.83325815 -0.3285867 0.36545104 0.19514301 0.4103079 -0.10038779 0.18011673 0.029235415 0.29772916 -0.22589783 0.04212695 0.23784192 0.15670596 0.1297428 -0.6079384 0.21824513 0.41946277 0.134218 0.19263996 -0.14677258 0.09267536 -0.06788431 0.1482336 0.87530017 0.38257313 -0.06380818 -0.0020103427 -0.19363655 0.01833973 0.20801759 0.057009794 0.6028037 0.3467996 -0.12570673 -0.05172967 0.08284413 -0.12911585 -0.0012623749 0.07627519 -0.009901335 0.7740335 0.1494407 -0.01595898 0.44765767 -0.2752376 0.16863064 0.14608899 -0.34186763 0.14984259 -0.01397783 0.40104073 0.5054305 0.14577183 -0.37383965 -0.12389765 0.08458861 -0.13815302 0.5203537 0.26219115 0.37735346 -0.4937214 -0.42075303 -0.16718473 -0.38991085 0.022041904 -0.3402861 -0.24366474 0.5845943 0.23836508 0.577247 0.19276208 -0.37933663 0.8791105 0.5255898 0.10916803 -0.073154 0.46603465 0.06897494 0.5920736 -0.16820018 -0.3541488 0.12293946 -0.41427797 -0.059875373 0.5191377 -0.055619683 -1.0075188 0.6626163 0.42267376 0.09817439 0.19467744 0.4086429 -0.4722494 -0.31081665 0.1042441 0.26032218 0.014485984
basically 0.37027562 0.38249955 0.2731369 -0.934666 -0.6569689 0.3592969 0.1950543 0.35994267 -0.062069755 0.24596813 -0.08383539 0.15252584 -0.23298433 0.014193877 0.25445527 0.010065017 0.17513199 -0.56952655 0.44113946 0.40380853 0.0063982243 0.15015201 -0.30216303 0.040569376 -0.10314848 0.1600922 1.042446 0.4154954 0.1164583 0.09019622 -0.2932838 0.10993748 0.33383164 -0.08583205 0.52234703 0.30274898 -0.10164944 -0.054202706 0.20651329 -0.2114276 0.0058985124 0.06665149 0.118383616 0.67614555 0.24208553 -0.07002231 0.3819645 -0.12578155 0.16520102 -0.013950176 -0.43979347 0.034393042 -0.007991313 0.41878226 0.51357615 0.26662216 -0.466792 -0.15132134 0.2593308 -0.0054101064 0.5623671 0.27858615 0.13568518 -0.5034335 -0.33073157 -0.14943847 -0.29438826 0.100296535 -0.47452095 -0.118932895 0.51746523 -0.021976518 0.65044755 0.06112021 -0.25764164 0.7308967 0.5839879 0.3357111 0.11968093 0.42571568 0.21950254 0.53256696 -0.16699986 -0.3814144 -0.044691302 -0.44650084 -0.04363137 0.6354239 -0.16574891 -1.013219 0.7761242 0.38540062 -0.07910444 0.20488113 0.35603002 -0.5278045 -0.39811808 -0.028410867 0.40462667 -0.10428005
neural 0.23590554 0.43206245 0.38287523 -0.78189254 1.1648508 0.46980038 0.13170214 0.80319184 -0.043360557 0.7798216 -0.2100691 0.42485043 -0.09169805 -0.24749717 0.15032707 -0.08806761 -0.34542048 -1.0157664 -0.54783195 0.9615856 0.048539698 -0.44312215 -0.0067036278 0.36881 0.24617149 -0.35507962 0.52835494 -0.54862636 0.531279 0.0661555 0.20546296 -0.57229656 -0.44262457 -0.20824674 1.7305648 -0.5348283 -0.13941741 -0.14207879 0.52054983 0.08315058 0.5201809 0.43501636 -0.80627143 0.3027053 -0.43203676 0.47043148 0.68211854 -0.25682798 -0.55196613 0.6144325 -0.39468583 0.6280734 -0.73991555 -0.060489465 0.096238665 -0.08288603 0.1764198 0.026404623 -0.2361305 0.33007595 0.30270183 0.2586419 1.3098612 -1.0526395 -1.3209658 0.6096178 -0.54277354 -0.062340792 0.74248207 -0.19348782 0.028213644 0.5767394 0.5388279 0.8339054 -0.9379249 1.221287 -0.320694 -0.8710208 -0.17849989 1.0795655 -0.7341625 0.6819569 0.22166757 -1.1830772 0.693894 -0.73840463 0.6497988 0.7864335 0.57852834 -0.8846042 0.52605385 0.60877156 0.69724226 -0.09433512 1.1847893 -0.097507425 -0.735317 -0.4120011 0.24713418 0.71743214
other 0.23117128 0.06164056 0.14110178 -0.34042186 0.092421204 0.64790595 0.3234588 0.3370641 0.19522016 0.11887324 0.16538027 0.081158526 0.05049902 0.076577544 0.06590138 0.078929394 -0.7908344 -0.32675985 0.024960645 0.06999369 -0.53283876 -0.33894938 0.17588593 0.67773616 -0.021938598 0.34680983 0.06417005 0.3242616 -0.44909495 -0.08128345 0.19398634 0.3321342 0.26127315 0.019391546 0.5257692 0.40240842 -0.2378605 -0.18170632 -0.13272026 0.41538212 -0.2556704 -0.5081271 -0.23714389 1.1828582 0.44015077 0.122131206 0.22809756 0.035622723 0.45029098 0.4724927 0.82909167 0.33181995 0.11935233 0.21586032 0.36900583 -0.30839393 -0.18212898 0.005144019 -0.7791231 -0.24680568 0.27713242 -0.051240783 0.96848476 -0.048394404 -0.48641735 -0.13831683 -0.26716268 0.6115426 0.15978916 -0.14635648 0.8524003 0.5551092 -0.32075456 0.055966552 -0.14227556 0.39085177 0.05829337 -0.25728655 -0.362914 0.4351471 0.31881285 0.7197447 0.535964 -0.33349255 0.7973551 0.03319351 -0.20719878 0.016656943 0.3505092 -0.5948325 0.28926817 0.104123026 0.09413848 -0.14056401 0.24792576 -0.23117493 -0.020484868 -0.5521757 0.07377903 0.23661904
lot 0.09328399 0.15177697 -0.09696212 -0.32762584 0.7199241 0.8469844 0.40623787 0.5330758 0.052207064 0.4475691 0.011447372 0.123550735 0.14050885 -0.23555659 0.044759095 0.13513272 -1.1693077 -0.2916189 -0.10109716 0.093769796 -0.67242724 -0.7846984 0.36033666 0.97472143 0.1694015 0.27508822 -0.5331345 0.08764602 -0.73012596 -0.28390345 0.4580644 0.21958306 -0.16110021 0.11360876 0.5120621 -0.034092434 -0.18251102 -0.061937634 -0.16445734 0.6893468 -0.09922549 -0.57056034 -0.60411656 0.9442975 0.2718845 0.27086416 -0.0011854764 -0.13910857 0.3288524 0.93063223 1.248177 0.4063385 -0.04036127 -0.041820318 0.0023347023 -0.389281 -0.14450204 -0.12816401 -1.1621052 -0.32021594 0.4029566 -0.09337924 1.4992982 0.17973286 -0.7901643 -0.11058249 -0.30767497 1.0507393 0.5354203 -0.3602711 0.8655785 0.76652956 -0.76293284 0.023078172 -0.22443971 0.065009035 -0.29695973 -0.58002335 -0.52764416 0.40840462 0.30938336 0.7491968 0.977841 -0.29207185 1.0343312 0.19667086 -0.34752727 -0.23645234 0.5679898 -0.22695574 -0.13481732 -0.04626111 -0.017898487 -0.23443596 0.06474218 0.24981204 0.17355396 -0.9766204 -0.045201674 0.42933005
when 0.00754759 0.2892695 0.11885166 -0.5191579 -0.5459294 0.22410144 0.16201687 0.37140292 -0.013146183 -0.08461993 0.2805084 0.2035835 -0.1933288 -0.10652497 0.3392803 0.008705064 -0.19248289 -0.37336895 0.25457337 0.21999349 -0.113337204 0.26283136 -0.12311112 0.50532144 -0.38513172 0.0029656182 0.65290344 0.56030595 -0.07533869 0.037810307 0.034500565 0.04797817 0.26897696 0.009746538 0.33093685 0.51789033 -0.07375627 0.05899519 -0.310559 0.11235316 -0.274814 -0.45702153 -0.14701402 0.8804134 0.48825166 -0.048242312 0.17618832 -0.3190337 0.25651675 0.07959182 0.21051888 0.2698968 0.43740907 0.581259 0.8165163 -0.40962964 -0.264807 -0.10810342 -0.46111673 -0.2750469 0.48338932 0.63917166 0.3299481 -0.38159516 -0.19190693 0.07839366 -0.3828795 0.20783564 -0.28655374 -0.1586852 0.71028084 0.39782545 0.23972592 -0.10905806 -0.1839079 0.2704348 0.3256732 0.12610258 -0.09089184 0.36005965 0.23288743 0.6249426 -0.079569794 0.108946115 0.2314524 -0.3386675 -0.050527498 0.22669554 0.30139384 -0.32259908 0.41308898 0.22332829 0.061773818 -0.24221711 0.21307589 -0.41030237 0.23075911 -0.019669354 -0.17724788 0.06948156
two 0.42395338 0.20302609 0.22083656 -0.6308881 -0.3831244 0.4935467 0.24130495 0.27612492 0.043713473 0.22867998 0.02715942 0.009828247 -0.16991305 0.12989788 0.054220237 0.04576811 -0.24420846 -0.46388045 0.28466433 0.2829986 -0.21800312 -0.13199896 -0.08116412 0.22349326 0.0026951763 0.41850936 0.64499104 0.3513201 -0.13316372 -0.02586373 -0.15622942 0.29993808 0.4177783 -0.030689057 0.53374594 0.39481452 -0.17329215 -0.15731761 0.20367467 -0.06233688 -0.121418394 -0.10268762 -0.027167134 0.92983246 0.42142788 -0.03912466 0.4288737 0.11763853 0.36617827 0.20351899 0.04471105 0.10505734 0.03139795 0.27838624 0.3997517 0.1656703 -0.45257217 -0.07513277 -0.063070804 0.0008047244 0.44701904 -0.001223679 0.42652398 -0.2675881 -0.37726223 -0.31762075 -0.29183245 0.34572423 -0.28855032 -0.14509292 0.694634 0.13550344 0.2939805 0.09276432 -0.22957312 0.6628756 0.48129043 0.12367025 -0.10503418 0.48178658 0.3074662 0.56885606 0.22769944 -0.4555588 0.3258755 -0.22967808 -0.1625945 0.49464914 0.0048572645 -0.99273276 0.62616354 0.27345306 -0.054096658 0.16433421 0.29030925 -0.53652006 -0.33683088 -0.2661226 0.42294022 -0.004776135
gonna 0.05095577 1.0610644 -0.0066157854 -0.58369684 -0.53272635 -0.42597726 -0.23717353 -0.0840424 -0.3026859 -0.5274392 0.15943822 0.5594828 0.06760386 -0.4424177 0.19759828 0.3627015 0.93235075 -0.5107542 0.20743528 0.27795705 1.0480978 1.2234486 -0.35274553 0.012531164 -0.2225317 -0.6126497 1.7618835 0.9376621 0.27705142 0.23232552 -0.54660136 -0.17143779 0.29839957 0.00015254297 0.5588902 0.9656312 -0.24473134 0.042744122 -0.6154084 -0.43962887 -0.34844524 0.12868775 0.0017882687 0.66695786 0.47497243 -0.50731957 0.20257136 -0.94296813 -0.29961854 -0.03614 -0.8554946 0.13812591 0.65111625 0.92477196 1.1376718 -0.48213628 -0.13316363 -0.25121588 0.13839658 -0.20837009 0.86748064 1.2208965 0.31512082 -0.13607295 0.12108743 0.29434595 -0.5362705 -0.44194457 -1.0259712 -0.42163363 0.8593354 0.27567053 1.0356555 0.09186283 -0.22457984 0.5790734 0.7094314 0.26884443 0.31738955 0.47260076 -0.22580546 0.7545374 -0.9275887 0.345078 -0.100038216 -0.60429186 0.55844134 0.6056953 -0.08467812 -0.5853857 0.67915386 0.65458274 -0.11480696 -0.27695227 0.40325552 -0.3775065 -0.19836679 1.1216469 0.35448408 -0.17714901
use 0.21101776 0.2522759 0.14206108 -0.505613 -0.32371795 0.2562503 0.21682864 0.39469552 -0.063785024 -0.08722098 0.15203688 0.21872462 -0.27210042 -0.07038723 0.26840866 -0.011728944 -0.28184792 -0.32442605 0.13142064 0.27184284 -0.05191916 0.094238654 -0.076613575 0.39849693 -0.43422303 0.05686551 0.55152917 0.39238623 -0.07507763 -0.021699648 0.06548778 0.0011494817 0.19719757 0.05452446 0.5596877 0.46932307 -0.091360725 0.043478787 -0.09926718 0.07872264 -0.061650664 -0.28121075 -0.2150738 0.8672429 0.41288006 0.085287094 0.3112006 -0.33844262 0.21589434 0.09786448 0.21627037 0.290765 0.3152589 0.5273529 0.73894495 -0.2799202 -0.21979082 -0.17632045 -0.39559194 -0.24236052 0.52941626 0.58855814 0.47580963 -0.44989797 -0.31817794 0.09051317 -0.40646482 0.16765594 -0.16829333 -0.16459288 0.6170332 0.5070171 0.35985544 -0.047418572 -0.29825935 0.4251573 0.30937064 0.02748802 -0.08966981 0.4045314 0.14372781 0.5449975 0.020232826 -0.004259076 0.2854207 -0.49037677 -0.057584822 0.36725628 0.32109144 -0.33886158 0.44917166 0.16468842 0.25996128 -0.12804842 0.2582829 -0.52810574 0.09741617 -0.12487983 -0.075976446 0.1677872
them 0.17002659 0.17953065 0.05984991 -0.3738183 -0.2802801 0.37653455 0.26942465 0.3637368 -0.074009985 -0.029917132 0.26190254 0.12774807 -0.38960218 0.002316459 0.123326294 0.036468316 -0.46174377 -0.23727193 0.09607435 0.23532486 -0.05865726 -0.036242805 -0.04150333 0.4407668 -0.3806077 0.26788214 0.33036113 0.43103662 -0.27395254 -0.14541295 0.1446139 0.09099461 0.34444982 0.16065042 0.39889213 0.41437173 -0.09189118 0.060522676 -0.1738434 0.013698536 -0.118952334 -0.37973163 -0.338967 0.97578776 0.55861425 0.06864927 0.2832013 -0.15382524 0.46971223 0.25151137 0.46750313 0.24262354 0.35566312 0.50874466 0.5766723 -0.2046491 -0.28419682 -0.22337648 -0.54422975 -0.3561022 0.5170436 0.48311177 0.5739401 -0.25688207 -0.32775113 -0.106608965 -0.47738326 0.30431128 -0.14533888 -0.28668055 0.79022694 0.6280023 0.27355474 -0.081939965 -0.288317 0.3763141 0.34273383 0.044259485 -0.24810636 0.368229 0.1816951 0.47608942 0.23431113 0.07003879 0.40141296 -0.36161447 -0.23273161 0.2640706 0.40841374 -0.42056286 0.28546646 0.1920694 0.19268863 0.002151839 0.14179942 -0.48476747 0.18517202 -0.083485946 -0.12421909 0.12537684
up 0.14965151 0.25036067 0.13449961 -0.50845087 0.007915107 0.40069607 0.24311186 0.3497219 -0.05875121 0.13908423 0.14839846 0.25344238 0.017666847 -0.14658916 0.10501657 0.12989198 -0.29442078 -0.45265326 0.120392084 0.23232432 -0.1450144 -0.008247088 -0.015471953 0.49647346 -0.15663789 0.14171202 0.4655522 0.38757247 -0.18395495 -0.026762422 0.025346134 0.077062696 0.15873893 0.038425684 0.59162265 0.4642789 -0.11194356 -0.13628452 -0.15885092 0.16658641 -0.17505936 -0.29987767 -0.16666722 0.9123088 0.29910257 -0.0015757827 0.26958463 -0.30047834 0.29347077 0.31932124 0.26342386 0.22948979 0.11242882 0.40083554 0.57471514 -0.18381664 -0.24402241 -0.18771313 -0.36867848 -0.22974159 0.5404727 0.35207263 0.63684213 -0.36678788 -0.3984152 -0.04106674 -0.28091308 0.4350513 -0.11437167 -0.18686818 0.7714235 0.4474768 0.16400133 0.034526918 -0.12066194 0.523069 0.22653861 -0.047498643 -0.1720853 0.49814317 0.20338531 0.7631682 0.04328759 -0.237959 0.4832765 -0.25649405 -0.07217897 0.26902264 0.2350943 -0.6194208 0.42905632 0.11923286 0.08146724 -0.15856983 0.25925314 -0.39418772 -0.014781896 -0.36542556 0.07077881 0.083670974
